tree
version=v4
num_class=1
num_tree_per_iteration=1
label_index=0
max_feature_idx=1283
objective=regression
feature_names=user_id book_id has_read gender age author_id publication_year language publisher avg_rating book_genres_count tfidf_0 tfidf_1 tfidf_2 tfidf_3 tfidf_4 tfidf_5 tfidf_6 tfidf_7 tfidf_8 tfidf_9 tfidf_10 tfidf_11 tfidf_12 tfidf_13 tfidf_14 tfidf_15 tfidf_16 tfidf_17 tfidf_18 tfidf_19 tfidf_20 tfidf_21 tfidf_22 tfidf_23 tfidf_24 tfidf_25 tfidf_26 tfidf_27 tfidf_28 tfidf_29 tfidf_30 tfidf_31 tfidf_32 tfidf_33 tfidf_34 tfidf_35 tfidf_36 tfidf_37 tfidf_38 tfidf_39 tfidf_40 tfidf_41 tfidf_42 tfidf_43 tfidf_44 tfidf_45 tfidf_46 tfidf_47 tfidf_48 tfidf_49 tfidf_50 tfidf_51 tfidf_52 tfidf_53 tfidf_54 tfidf_55 tfidf_56 tfidf_57 tfidf_58 tfidf_59 tfidf_60 tfidf_61 tfidf_62 tfidf_63 tfidf_64 tfidf_65 tfidf_66 tfidf_67 tfidf_68 tfidf_69 tfidf_70 tfidf_71 tfidf_72 tfidf_73 tfidf_74 tfidf_75 tfidf_76 tfidf_77 tfidf_78 tfidf_79 tfidf_80 tfidf_81 tfidf_82 tfidf_83 tfidf_84 tfidf_85 tfidf_86 tfidf_87 tfidf_88 tfidf_89 tfidf_90 tfidf_91 tfidf_92 tfidf_93 tfidf_94 tfidf_95 tfidf_96 tfidf_97 tfidf_98 tfidf_99 tfidf_100 tfidf_101 tfidf_102 tfidf_103 tfidf_104 tfidf_105 tfidf_106 tfidf_107 tfidf_108 tfidf_109 tfidf_110 tfidf_111 tfidf_112 tfidf_113 tfidf_114 tfidf_115 tfidf_116 tfidf_117 tfidf_118 tfidf_119 tfidf_120 tfidf_121 tfidf_122 tfidf_123 tfidf_124 tfidf_125 tfidf_126 tfidf_127 tfidf_128 tfidf_129 tfidf_130 tfidf_131 tfidf_132 tfidf_133 tfidf_134 tfidf_135 tfidf_136 tfidf_137 tfidf_138 tfidf_139 tfidf_140 tfidf_141 tfidf_142 tfidf_143 tfidf_144 tfidf_145 tfidf_146 tfidf_147 tfidf_148 tfidf_149 tfidf_150 tfidf_151 tfidf_152 tfidf_153 tfidf_154 tfidf_155 tfidf_156 tfidf_157 tfidf_158 tfidf_159 tfidf_160 tfidf_161 tfidf_162 tfidf_163 tfidf_164 tfidf_165 tfidf_166 tfidf_167 tfidf_168 tfidf_169 tfidf_170 tfidf_171 tfidf_172 tfidf_173 tfidf_174 tfidf_175 tfidf_176 tfidf_177 tfidf_178 tfidf_179 tfidf_180 tfidf_181 tfidf_182 tfidf_183 tfidf_184 tfidf_185 tfidf_186 tfidf_187 tfidf_188 tfidf_189 tfidf_190 tfidf_191 tfidf_192 tfidf_193 tfidf_194 tfidf_195 tfidf_196 tfidf_197 tfidf_198 tfidf_199 tfidf_200 tfidf_201 tfidf_202 tfidf_203 tfidf_204 tfidf_205 tfidf_206 tfidf_207 tfidf_208 tfidf_209 tfidf_210 tfidf_211 tfidf_212 tfidf_213 tfidf_214 tfidf_215 tfidf_216 tfidf_217 tfidf_218 tfidf_219 tfidf_220 tfidf_221 tfidf_222 tfidf_223 tfidf_224 tfidf_225 tfidf_226 tfidf_227 tfidf_228 tfidf_229 tfidf_230 tfidf_231 tfidf_232 tfidf_233 tfidf_234 tfidf_235 tfidf_236 tfidf_237 tfidf_238 tfidf_239 tfidf_240 tfidf_241 tfidf_242 tfidf_243 tfidf_244 tfidf_245 tfidf_246 tfidf_247 tfidf_248 tfidf_249 tfidf_250 tfidf_251 tfidf_252 tfidf_253 tfidf_254 tfidf_255 tfidf_256 tfidf_257 tfidf_258 tfidf_259 tfidf_260 tfidf_261 tfidf_262 tfidf_263 tfidf_264 tfidf_265 tfidf_266 tfidf_267 tfidf_268 tfidf_269 tfidf_270 tfidf_271 tfidf_272 tfidf_273 tfidf_274 tfidf_275 tfidf_276 tfidf_277 tfidf_278 tfidf_279 tfidf_280 tfidf_281 tfidf_282 tfidf_283 tfidf_284 tfidf_285 tfidf_286 tfidf_287 tfidf_288 tfidf_289 tfidf_290 tfidf_291 tfidf_292 tfidf_293 tfidf_294 tfidf_295 tfidf_296 tfidf_297 tfidf_298 tfidf_299 tfidf_300 tfidf_301 tfidf_302 tfidf_303 tfidf_304 tfidf_305 tfidf_306 tfidf_307 tfidf_308 tfidf_309 tfidf_310 tfidf_311 tfidf_312 tfidf_313 tfidf_314 tfidf_315 tfidf_316 tfidf_317 tfidf_318 tfidf_319 tfidf_320 tfidf_321 tfidf_322 tfidf_323 tfidf_324 tfidf_325 tfidf_326 tfidf_327 tfidf_328 tfidf_329 tfidf_330 tfidf_331 tfidf_332 tfidf_333 tfidf_334 tfidf_335 tfidf_336 tfidf_337 tfidf_338 tfidf_339 tfidf_340 tfidf_341 tfidf_342 tfidf_343 tfidf_344 tfidf_345 tfidf_346 tfidf_347 tfidf_348 tfidf_349 tfidf_350 tfidf_351 tfidf_352 tfidf_353 tfidf_354 tfidf_355 tfidf_356 tfidf_357 tfidf_358 tfidf_359 tfidf_360 tfidf_361 tfidf_362 tfidf_363 tfidf_364 tfidf_365 tfidf_366 tfidf_367 tfidf_368 tfidf_369 tfidf_370 tfidf_371 tfidf_372 tfidf_373 tfidf_374 tfidf_375 tfidf_376 tfidf_377 tfidf_378 tfidf_379 tfidf_380 tfidf_381 tfidf_382 tfidf_383 tfidf_384 tfidf_385 tfidf_386 tfidf_387 tfidf_388 tfidf_389 tfidf_390 tfidf_391 tfidf_392 tfidf_393 tfidf_394 tfidf_395 tfidf_396 tfidf_397 tfidf_398 tfidf_399 tfidf_400 tfidf_401 tfidf_402 tfidf_403 tfidf_404 tfidf_405 tfidf_406 tfidf_407 tfidf_408 tfidf_409 tfidf_410 tfidf_411 tfidf_412 tfidf_413 tfidf_414 tfidf_415 tfidf_416 tfidf_417 tfidf_418 tfidf_419 tfidf_420 tfidf_421 tfidf_422 tfidf_423 tfidf_424 tfidf_425 tfidf_426 tfidf_427 tfidf_428 tfidf_429 tfidf_430 tfidf_431 tfidf_432 tfidf_433 tfidf_434 tfidf_435 tfidf_436 tfidf_437 tfidf_438 tfidf_439 tfidf_440 tfidf_441 tfidf_442 tfidf_443 tfidf_444 tfidf_445 tfidf_446 tfidf_447 tfidf_448 tfidf_449 tfidf_450 tfidf_451 tfidf_452 tfidf_453 tfidf_454 tfidf_455 tfidf_456 tfidf_457 tfidf_458 tfidf_459 tfidf_460 tfidf_461 tfidf_462 tfidf_463 tfidf_464 tfidf_465 tfidf_466 tfidf_467 tfidf_468 tfidf_469 tfidf_470 tfidf_471 tfidf_472 tfidf_473 tfidf_474 tfidf_475 tfidf_476 tfidf_477 tfidf_478 tfidf_479 tfidf_480 tfidf_481 tfidf_482 tfidf_483 tfidf_484 tfidf_485 tfidf_486 tfidf_487 tfidf_488 tfidf_489 tfidf_490 tfidf_491 tfidf_492 tfidf_493 tfidf_494 tfidf_495 tfidf_496 tfidf_497 tfidf_498 tfidf_499 bert_0 bert_1 bert_2 bert_3 bert_4 bert_5 bert_6 bert_7 bert_8 bert_9 bert_10 bert_11 bert_12 bert_13 bert_14 bert_15 bert_16 bert_17 bert_18 bert_19 bert_20 bert_21 bert_22 bert_23 bert_24 bert_25 bert_26 bert_27 bert_28 bert_29 bert_30 bert_31 bert_32 bert_33 bert_34 bert_35 bert_36 bert_37 bert_38 bert_39 bert_40 bert_41 bert_42 bert_43 bert_44 bert_45 bert_46 bert_47 bert_48 bert_49 bert_50 bert_51 bert_52 bert_53 bert_54 bert_55 bert_56 bert_57 bert_58 bert_59 bert_60 bert_61 bert_62 bert_63 bert_64 bert_65 bert_66 bert_67 bert_68 bert_69 bert_70 bert_71 bert_72 bert_73 bert_74 bert_75 bert_76 bert_77 bert_78 bert_79 bert_80 bert_81 bert_82 bert_83 bert_84 bert_85 bert_86 bert_87 bert_88 bert_89 bert_90 bert_91 bert_92 bert_93 bert_94 bert_95 bert_96 bert_97 bert_98 bert_99 bert_100 bert_101 bert_102 bert_103 bert_104 bert_105 bert_106 bert_107 bert_108 bert_109 bert_110 bert_111 bert_112 bert_113 bert_114 bert_115 bert_116 bert_117 bert_118 bert_119 bert_120 bert_121 bert_122 bert_123 bert_124 bert_125 bert_126 bert_127 bert_128 bert_129 bert_130 bert_131 bert_132 bert_133 bert_134 bert_135 bert_136 bert_137 bert_138 bert_139 bert_140 bert_141 bert_142 bert_143 bert_144 bert_145 bert_146 bert_147 bert_148 bert_149 bert_150 bert_151 bert_152 bert_153 bert_154 bert_155 bert_156 bert_157 bert_158 bert_159 bert_160 bert_161 bert_162 bert_163 bert_164 bert_165 bert_166 bert_167 bert_168 bert_169 bert_170 bert_171 bert_172 bert_173 bert_174 bert_175 bert_176 bert_177 bert_178 bert_179 bert_180 bert_181 bert_182 bert_183 bert_184 bert_185 bert_186 bert_187 bert_188 bert_189 bert_190 bert_191 bert_192 bert_193 bert_194 bert_195 bert_196 bert_197 bert_198 bert_199 bert_200 bert_201 bert_202 bert_203 bert_204 bert_205 bert_206 bert_207 bert_208 bert_209 bert_210 bert_211 bert_212 bert_213 bert_214 bert_215 bert_216 bert_217 bert_218 bert_219 bert_220 bert_221 bert_222 bert_223 bert_224 bert_225 bert_226 bert_227 bert_228 bert_229 bert_230 bert_231 bert_232 bert_233 bert_234 bert_235 bert_236 bert_237 bert_238 bert_239 bert_240 bert_241 bert_242 bert_243 bert_244 bert_245 bert_246 bert_247 bert_248 bert_249 bert_250 bert_251 bert_252 bert_253 bert_254 bert_255 bert_256 bert_257 bert_258 bert_259 bert_260 bert_261 bert_262 bert_263 bert_264 bert_265 bert_266 bert_267 bert_268 bert_269 bert_270 bert_271 bert_272 bert_273 bert_274 bert_275 bert_276 bert_277 bert_278 bert_279 bert_280 bert_281 bert_282 bert_283 bert_284 bert_285 bert_286 bert_287 bert_288 bert_289 bert_290 bert_291 bert_292 bert_293 bert_294 bert_295 bert_296 bert_297 bert_298 bert_299 bert_300 bert_301 bert_302 bert_303 bert_304 bert_305 bert_306 bert_307 bert_308 bert_309 bert_310 bert_311 bert_312 bert_313 bert_314 bert_315 bert_316 bert_317 bert_318 bert_319 bert_320 bert_321 bert_322 bert_323 bert_324 bert_325 bert_326 bert_327 bert_328 bert_329 bert_330 bert_331 bert_332 bert_333 bert_334 bert_335 bert_336 bert_337 bert_338 bert_339 bert_340 bert_341 bert_342 bert_343 bert_344 bert_345 bert_346 bert_347 bert_348 bert_349 bert_350 bert_351 bert_352 bert_353 bert_354 bert_355 bert_356 bert_357 bert_358 bert_359 bert_360 bert_361 bert_362 bert_363 bert_364 bert_365 bert_366 bert_367 bert_368 bert_369 bert_370 bert_371 bert_372 bert_373 bert_374 bert_375 bert_376 bert_377 bert_378 bert_379 bert_380 bert_381 bert_382 bert_383 bert_384 bert_385 bert_386 bert_387 bert_388 bert_389 bert_390 bert_391 bert_392 bert_393 bert_394 bert_395 bert_396 bert_397 bert_398 bert_399 bert_400 bert_401 bert_402 bert_403 bert_404 bert_405 bert_406 bert_407 bert_408 bert_409 bert_410 bert_411 bert_412 bert_413 bert_414 bert_415 bert_416 bert_417 bert_418 bert_419 bert_420 bert_421 bert_422 bert_423 bert_424 bert_425 bert_426 bert_427 bert_428 bert_429 bert_430 bert_431 bert_432 bert_433 bert_434 bert_435 bert_436 bert_437 bert_438 bert_439 bert_440 bert_441 bert_442 bert_443 bert_444 bert_445 bert_446 bert_447 bert_448 bert_449 bert_450 bert_451 bert_452 bert_453 bert_454 bert_455 bert_456 bert_457 bert_458 bert_459 bert_460 bert_461 bert_462 bert_463 bert_464 bert_465 bert_466 bert_467 bert_468 bert_469 bert_470 bert_471 bert_472 bert_473 bert_474 bert_475 bert_476 bert_477 bert_478 bert_479 bert_480 bert_481 bert_482 bert_483 bert_484 bert_485 bert_486 bert_487 bert_488 bert_489 bert_490 bert_491 bert_492 bert_493 bert_494 bert_495 bert_496 bert_497 bert_498 bert_499 bert_500 bert_501 bert_502 bert_503 bert_504 bert_505 bert_506 bert_507 bert_508 bert_509 bert_510 bert_511 bert_512 bert_513 bert_514 bert_515 bert_516 bert_517 bert_518 bert_519 bert_520 bert_521 bert_522 bert_523 bert_524 bert_525 bert_526 bert_527 bert_528 bert_529 bert_530 bert_531 bert_532 bert_533 bert_534 bert_535 bert_536 bert_537 bert_538 bert_539 bert_540 bert_541 bert_542 bert_543 bert_544 bert_545 bert_546 bert_547 bert_548 bert_549 bert_550 bert_551 bert_552 bert_553 bert_554 bert_555 bert_556 bert_557 bert_558 bert_559 bert_560 bert_561 bert_562 bert_563 bert_564 bert_565 bert_566 bert_567 bert_568 bert_569 bert_570 bert_571 bert_572 bert_573 bert_574 bert_575 bert_576 bert_577 bert_578 bert_579 bert_580 bert_581 bert_582 bert_583 bert_584 bert_585 bert_586 bert_587 bert_588 bert_589 bert_590 bert_591 bert_592 bert_593 bert_594 bert_595 bert_596 bert_597 bert_598 bert_599 bert_600 bert_601 bert_602 bert_603 bert_604 bert_605 bert_606 bert_607 bert_608 bert_609 bert_610 bert_611 bert_612 bert_613 bert_614 bert_615 bert_616 bert_617 bert_618 bert_619 bert_620 bert_621 bert_622 bert_623 bert_624 bert_625 bert_626 bert_627 bert_628 bert_629 bert_630 bert_631 bert_632 bert_633 bert_634 bert_635 bert_636 bert_637 bert_638 bert_639 bert_640 bert_641 bert_642 bert_643 bert_644 bert_645 bert_646 bert_647 bert_648 bert_649 bert_650 bert_651 bert_652 bert_653 bert_654 bert_655 bert_656 bert_657 bert_658 bert_659 bert_660 bert_661 bert_662 bert_663 bert_664 bert_665 bert_666 bert_667 bert_668 bert_669 bert_670 bert_671 bert_672 bert_673 bert_674 bert_675 bert_676 bert_677 bert_678 bert_679 bert_680 bert_681 bert_682 bert_683 bert_684 bert_685 bert_686 bert_687 bert_688 bert_689 bert_690 bert_691 bert_692 bert_693 bert_694 bert_695 bert_696 bert_697 bert_698 bert_699 bert_700 bert_701 bert_702 bert_703 bert_704 bert_705 bert_706 bert_707 bert_708 bert_709 bert_710 bert_711 bert_712 bert_713 bert_714 bert_715 bert_716 bert_717 bert_718 bert_719 bert_720 bert_721 bert_722 bert_723 bert_724 bert_725 bert_726 bert_727 bert_728 bert_729 bert_730 bert_731 bert_732 bert_733 bert_734 bert_735 bert_736 bert_737 bert_738 bert_739 bert_740 bert_741 bert_742 bert_743 bert_744 bert_745 bert_746 bert_747 bert_748 bert_749 bert_750 bert_751 bert_752 bert_753 bert_754 bert_755 bert_756 bert_757 bert_758 bert_759 bert_760 bert_761 bert_762 bert_763 bert_764 bert_765 bert_766 bert_767 user_mean_rating user_ratings_count book_mean_rating book_ratings_count author_mean_rating
feature_infos=[150:10987250] [20:8545715] none -1:1:0 [0:124] [11:3066499] [1890:2025] -1:7:26:10:0:27:12:19:16:4:6:23:21:3 -1:3194:2867:2835:3002:476:342:14:2059:3228:246:299:0:621:1784:790:1264:297:2439:1441:1617:3287:2310:2592:2735:2740:1494:2297:1933:566:2119:1716:2972:3105:3042:421:2630:2358:1160:477:2697:2521:796:2098:302:414:573:1999:2518:2435:1776:217:402:2903:1373:1626:568:1611:834:1026:832:3:3170:1029:3270:579:1212:2660:1692:3088:837:2613:823:532:2961:2150:3254:3148:585:371:2389:1253:211:298:3191:894:3106:764:1761:127:3206:2563:1743:2924:364:2431:2862:1616:1936:652:3131:475:488:2311:2470:2330:490:2451:2127:751:3122:3149:2087:2517:998:856:913:117:750:3258:2799:413:909:1958:81:794:1307:285:55:3281:6:135:2938:1156:2353:709:660:191:497:1354:628:715:2987:1317:1695:2147:2423:2520:789:2885:270:838:988:705:489:772:1996:2253:2383:1064:1176:2822:1358:2:207:771:2136:2804:3044:876:1423:323:491:1108:1222:2975:3249:161:409:604:733:1929:1668:1831:2024:2156:2751:630:1018:1422:1955:2320:330:1223:2516:540:1628:1665:1673:1921:2290:3198:225:425:662:1028:761:1326:2859:1811:1824:1834:2333:3186:3242:189:458:558:1682:1911:2893:786:914:511:793:1017:1126:1375:2043:2206:8:160:295:835:953:1068:1785:2380:2434:3079:172:548:1399:3050:1:1685:2067:2348:3298:346:646:755:809:888:1159:1245:1810:1872:3173:418:719:1687:1964:2927:2997:209:307:379:1372:1579:1718:1989:2045:2291:2400:2986:526:785:851:1047:1262:1484:1586:1764:1779:1883:2172:2569:2597:2619:266:318:829:1041:1237:1655:1706:1731:915:1158:1787:1899:1948:2131:2284:2326:2386:2911:259:485:811:1201:1452:1515:1789:1978:2287:2870:2897:3124:3197:10:31:174:260:781:813:843:1256:1376:2653:2730:181:351:561:753:889:1088:1128:1197:1463:1634:2571:2902:3037:3151:3172:86:107:112:541:586:612:670:680:699:759:777:974:1134:1179:1191:2192:2390:2408:2455:2742:2888:34:42:44:49:51:173:314:534:647:818:839:959:997:1250:1397:1676:1717:1774:2218:2251:2425:2548:2956:3262:221:247:272:329:407:479:542:580:606:654:677:767:799:805:816:860:943:989:1001:1055:1218:1330:1337:1436:1520:1636:1684:1798:1890:1915:2088:2146:2171:2335:2489:2522:2543:2951:3074:3101:20:232:235:248:296:309:322:361:468:483:507:551:675:766:954:1098:1137:1163:1169:1275:1279:1293:1427:1435:1473:1547:1602:1605:1638:1710:1730:1752:1833:1975:2064:2117:2215:2269:2270:2272:2493:2498:2501:2504:2554:2777:2849:2878:2936:3047:3083:3112:3157:12:38:71:75:111:178:268:313:353:387:591:624:626:659:665:703:723:791:841:849:873:877:920:934:985:1058:1060:1091:1151:1171:1172:1181:1215:1233:1281:1361:1388:1447:1461:1582:1584:1618:1763:1942:1970:2033:2048:2050:2137:2174:2355:2385:2464:2560:2596:2615:2685:2696:2722:2860:2944:3116:3140:3190:3204:113:301:331:337:344:348:416:448:572:688:698:731:744:778:807:840:875:928:999:1073:1127:1143:1188:1282:1291:1313:1349:1352:1430:1503:1507:1709:1727:1732:1772:1777:1821:1838:1868:1891:1950:1951:2032:2039:2124:2316:2347:2377:2482:2538:2575:2578:2633:2673:2703:2795:2864:2952:2960:2990:2993:3041:3058:3121:3134:3181:3291:3314:22:23:37:98:100:120:146:171:223:263:286:358:453:469:480:492:543:565:593:596:617:622:717:749:773:776:798:815:842:874:898:911:919:921:927:948:955:971:981:1004:1012:1069:1090:1102:1117:1131:1170:1174:1221:1294:1300:1301:1312:1315:1336:1347:1360:1381:1407:1451:1474:1486:1508:1525:1562:1564:1588:1596:1625:1630:1637:1644:1701:1704:1721:1724:1736:1775:1786:1792:1825:1836:1858:1897:1976:2003:2065:2082:2092:2193:2207:2225:2235:2332:2345:2367:2368:2404:2466:2487:2500:2502:2511:2531:2536:2539:2556:2585:2678:2746:2747:2766:2774:2832:2841:2853:2861:2894:2940:3144:3146:50:74:93:110:116:130:132:139:170:193:204:243:262:308:319:339:341:369:386:412:434:460:472:564:571:599:611:650:655:685:689:693:729:736:831:884:893:904:906:917:946:963:982:994:996:1005:1015:1042:1046:1059:1065:1076:1092:1105:1136:1190:1195:1208:1211:1213:1232:1240:1298:1335:1367:1418:1432:1456:1458:1487:1493:1521:1533:1555:1568:1575:1598:1609:1632:1652:1672:1689:1705:1729:1778:1802:1813:1840:1862:1889:1896:1923:1992:2004:2006:2027:2068:2077:2083:2089:2095:2097:2125:2126:2135:2138:2151:2168:2208:2232:2239:2241:2245:2275:2299:2334:2356:2376:2433:2444:2503:2523:2534:2547:2555:2583:2594:2601:2610:2631:2655:2705:2759:2792:2794:2813:2866:2868:2874:2912:2946:2985:3053:3066:3107:3108:3109:3142:3156:3213:3288 [0:10] [1:8] [0:0.79090940644502683] [0:0.58866084632458882] [0:0.52479987224391322] [0:1] [0:0.78728925411763673] [0:1] [0:0.83236365224447306] [0:1] [0:1] [0:0.82963322243503645] [0:1] [0:0.5092651230967058] [0:0.64698848992599556] [0:0.7364610117272784] [0:1] [0:1] [0:0.57862261789914526] [0:1] [0:0.51598267651870811] [0:0.73687859577568349] [0:0.62833614483424116] [0:0.62424570662777423] [0:0.55699128633580386] [0:0.57690380491840365] [0:0.69085170140911523] [0:0.71345970877538856] [0:0.64821901360524981] [0:0.69225136129147025] [0:0.64715433985529469] [0:0.80700023167325363] [0:0.7444647684683714] [0:0.6756167762534756] [0:0.86694620916880227] [0:0.67730208093213462] [0:0.64273852008035537] [0:0.76163695302273338] [0:0.51878192012224822] [0:0.81013217278921179] [0:0.67599449104880072] [0:0.9121127558668104] [0:0.62090397620656235] [0:0.74949668748923681] [0:0.52418014155475712] [0:0.80428323593642059] [0:0.69827437396288394] [0:0.72106767744476974] [0:0.54695098092462757] [0:0.50554518474240073] [0:0.73862618433443239] [0:0.51535354188464999] [0:0.90450084295387267] [0:0.75244860053688289] [0:0.94440899336433126] [0:0.6646190451434445] [0:0.54632489942569273] [0:0.74407787257672642] [0:0.69397675410222215] [0:0.74039676050466396] [0:0.63568749837453076] [0:0.77081087568408113] [0:0.86139422776607] [0:1] [0:0.57566014046849534] [0:0.64551263059185204] [0:0.85021008662467101] [0:0.51006029129505925] [0:0.79417633198467852] [0:0.75733416480904903] [0:0.58856300583488019] [0:0.56568543442634123] [0:0.64830135962552393] [0:0.59407547602910704] [0:0.83265648319475116] [0:0.74560390020371281] [0:0.74125530808797868] [0:1] [0:0.65787375409634863] [0:0.94510445810286925] [0:0.64907827566772347] [0:0.53449098391875394] [0:0.5637286192446197] [0:1] [0:1] [0:0.83025028074625062] [0:0.82331431723126747] [0:0.83194672153612559] [0:0.74758741244571392] [0:0.66100736589163556] [0:0.86753071163213569] [0:0.6714238517566733] [0:0.67111243050974712] [0:0.4956263268301942] [0:0.7801513969916799] [0:0.73897172906955066] [0:0.69869738922419444] [0:0.98855644090934769] [0:0.71661289769201997] [0:0.86413442391197215] [0:0.80815118475481884] [0:0.53972300463502398] [0:0.76552790444975838] [0:0.66672028324727783] [0:0.75948160490957495] [0:0.89097330342767844] [0:1] [0:1] [0:0.63246044169320137] [0:0.73139690778371869] [0:0.91832152562192781] [0:0.62489245341790922] [0:0.6524611888085412] [0:0.59029864362483775] [0:0.57225563678540348] [0:0.6237561441972963] [0:0.63954426851172819] [0:0.90307748776012875] [0:0.8377817655492007] [0:0.58917161973295207] [0:0.70084277890075386] [0:1] [0:0.6604164613321829] [0:0.58094057081082773] [0:0.61354538156836336] [0:0.70848311307206935] [0:0.71944146182859892] [0:0.52031183147219873] [0:0.58802786117341244] [0:0.76056736229280109] [0:0.57019878538313351] [0:0.59902127797638105] [0:0.7342471444258496] [0:0.81996940335890867] [0:0.67459151127300421] [0:0.52992054827315194] [0:0.63159701794489953] [0:1] [0:0.80144069670711104] [0:0.82525183370641242] [0:1] [0:0.82299616997832381] [0:0.86469894716918827] [0:0.65640372085596643] [0:0.72626365823213457] [0:0.84149932633093649] [0:0.66054145828914801] [0:1] [0:0.6179829126497467] [0:0.54208676892024044] [0:0.8716533542328716] [0:0.68928491938081105] [0:0.6099344524419632] [0:1] [0:0.56743821794254168] [0:0.86949534129840389] [0:0.60894082016990569] [0:0.52407653485291794] [0:0.52877865736056584] [0:0.60108502210265602] [0:0.8070679837583018] [0:1] [0:0.88267296128785822] [0:0.81266424283641248] [0:1] [0:0.8676364242478013] [0:0.76711953719603465] [0:0.72527083050039642] [0:0.50971077821085853] [0:0.78089541835993836] [0:0.74958928243370682] [0:0.62072870238833344] [0:0.57216656469048643] [0:1] [0:1] [0:1] [0:0.86293447125347589] [0:1] [0:0.66579641198190154] [0:0.69830505004366816] [0:0.623400739850001] [0:0.57139075229162239] [0:0.56181984587285994] [0:0.69085429937285325] [0:0.60834289908018657] [0:0.73022889373906164] [0:0.7016066247595607] [0:1] [0:0.67692731395870909] [0:0.57236181377207829] [0:0.53886517742147066] [0:0.87109839972295844] [0:0.79479751780211672] [0:0.77854615885625911] [0:0.65456395264779899] [0:0.5262747584763513] [0:0.79354223599718399] [0:0.43293731293640086] [0:0.90331174674121573] [0:0.71789292079659084] [0:0.79506081484026514] [0:0.62324273045035872] [0:0.65009504037740395] [0:0.58847810210007856] [0:0.89476800879313856] [0:1] [0:0.78386502016359583] [0:0.78570173550194999] [0:1] [0:0.67027812545947063] [0:0.67916510675863651] [0:0.73670111189794774] [0:0.69259837850736949] [0:0.83434141129631489] [0:1] [0:0.76423893821720967] [0:0.88255154868943242] [0:0.59998667944605055] [0:0.64410433117459531] [0:0.67626489113708033] [0:0.57280264148368687] [0:0.64708184377319466] [0:0.62604956259328404] [0:0.60753061966294353] [0:0.61861478145541182] [0:0.54485872100203514] [0:0.54153760178676891] [0:0.57208983006540459] [0:0.90413236333402625] [0:1] [0:0.54554309492883346] [0:0.50336772437770161] [0:0.43178446286851918] [0:0.53345963752581427] [0:0.67769767139890214] [0:0.63205765249213242] [0:0.55289450421988817] [0:0.66790284629130003] [0:0.59137452883359087] [0:0.49294537530014892] [0:0.58831076542951399] [0:0.58507034517439871] [0:0.76287851978546128] [0:0.64879573764939991] [0:0.61042003029289515] [0:0.58538961017874291] [0:0.64587054311814385] [0:0.72759236642170333] [0:1] [0:0.54930418415417515] [0:0.69358619984463588] [0:0.48975735811661947] [0:0.48220981803895901] [0:0.74278951938831295] [0:0.62231952728491735] [0:0.57194505800793394] [0:0.74510776433562631] [0:0.61670710381656069] [0:1] [0:0.76335632824133903] [0:0.6336623528900539] [0:0.58589066022567027] [0:0.65235618196250689] [0:0.55919633131756297] [0:0.6326726456124655] [0:0.59864089958211475] [0:0.61454853074508031] [0:0.67971518722819202] [0:0.4551324007760072] [0:0.56285486057406053] [0:1] [0:0.60494651803739119] [0:0.8235328485268909] [0:0.76034830598101055] [0:0.76741916154883749] [0:0.70691302362621511] [0:0.83016123066604575] [0:0.66112661664438788] [0:0.75557791791654394] [0:0.86164946735661874] [0:0.69888152506637302] [0:0.73803807138528932] [0:0.5205528453419781] [0:0.67190967787164357] [0:0.48418722735947134] [0:0.48001123459521133] [0:0.50570477369106293] [0:0.95011373712047653] [0:0.55070538124285007] [0:1] [0:0.57855257182781916] [0:0.70727546870322466] [0:0.61902980597721735] [0:0.77026635587190262] [0:0.58807223801796815] [0:0.7329057527933539] [0:0.87259053799207931] [0:0.60947673044287498] [0:1] [0:0.5395169922639238] [0:0.63308440318163217] [0:0.59683795715390742] [0:0.83804061791797846] [0:0.6150873488162738] [0:1] [0:0.87050649099520494] [0:0.68238206686199498] [0:0.79951823462950256] [0:0.87192155584378883] [0:0.74197018661615544] [0:1] [0:0.77657763570076932] [0:1] [0:0.76204223103060931] [0:1] [0:0.91727701421658936] [0:0.56078379969517356] [0:0.6513726672123471] [0:0.68583184892638094] [0:0.64561759429941912] [0:0.46524503630281439] [0:0.6334477270947203] [0:0.58548325561532488] [0:1] [0:0.92374773508797747] [0:0.54004629006541216] [0:0.56477611768026403] [0:0.65971469222306101] [0:0.73087002746939167] [0:0.48417874251815246] [0:0.67784387182556305] [0:0.74485837156129842] [0:0.52289060358116546] [0:0.83304090146727516] [0:0.72714565393808994] [0:0.57012334950279797] [0:0.59944063944863257] [0:0.71669988426659881] [0:0.62309720396610868] [0:0.94862030369956696] [0:0.80045489716736296] [0:1] [0:0.83136708408622029] [0:0.83364741212270832] [0:0.62404277886441561] [0:0.60859649385935144] [0:0.71425569098212105] [0:0.5123240178779378] [0:0.61157537041278454] [0:0.69405855148051965] [0:1] [0:0.6803490972523436] [0:0.67105068161992032] [0:0.77907300425070303] [0:0.57989781694507536] [0:0.71580651370069281] [0:0.67326056345844409] [0:1] [0:0.90920245885674755] [0:1] [0:0.84635109481355097] [0:0.73314271199647796] [0:1] [0:1] [0:0.7895807704755704] [0:0.76785742678105251] [0:1] [0:0.91597645266752814] [0:0.8514933372592477] [0:0.84754141248923753] [0:0.69982146601404049] [0:0.67583701017893405] [0:0.58857905480856221] [0:0.61053046301849601] [0:0.91941336454684364] [0:0.61142243301709243] [0:0.56611012657516357] [0:0.86177971117874996] [0:0.68304574010589025] [0:0.43578127534800332] [0:0.77357149172609907] [0:0.84249308717698357] [0:0.60595279429523252] [0:0.58117350966799708] [0:1] [0:0.58903146153214558] [0:0.70311822687869607] [0:0.52056490834601565] [0:0.59104416011110927] [0:0.62788397772822002] [0:0.77129800098019119] [0:0.52036753074194519] [0:0.56229459652257718] [0:0.61139558577177566] [0:0.65905157071762033] [0:0.75672866773167125] [0:0.47932931049513877] [0:0.63837657547722115] [0:0.68449606697936405] [0:0.68499323147878033] [0:0.69801210747059816] [0:0.60348509500666558] [0:0.86426188703335183] [0:0.56391126521619883] [0:0.92787867463588458] [0:0.65799460765560702] [0:1] [0:0.85891605940671389] [0:0.77459938112567095] [0:0.71678656264278984] [0:0.85803407066222626] [0:0.55289586107114175] [0:0.81506403000431671] [0:0.59713519833478179] [0:0.62409439663112898] [0:0.76393073900716013] [0:0.95339129038687265] [0:0.61624179710011329] [0:0.83211388801133024] [0:0.87901112762042322] [0:0.8728074441606154] [0:0.64678005020026552] [0:0.70609459808033725] [0:0.64171416990329944] [0:0.68290142688277677] [0:0.62658303602064125] [0:0.651851054420297] [0:0.60130938812810297] [0:0.59106185858128213] [0:0.49889586491276872] [0:0.61830071705323897] [0:0.5727989435247679] [0:0.78463848681395321] [0:0.71067595753549351] [0:0.70381709690111915] [0:1] [0:0.72862093349131241] [0:0.64133441127276214] [0:0.70934217508298747] [0:0.56850456237771785] [0:0.75429932925709142] [0:0.78553744194520314] [0:0.73806431042215481] [0:0.85356262587260878] [0:0.62711495997182287] [0:0.74122844376233177] [0:0.53477656223507897] [0:0.5155548082256769] [0:0.61194944810435392] [0:0.60212922253200885] [0:0.76233109102775964] [0:0.57500972009145102] [0:0.58112526774682682] [0:0.70853519249707275] [0:0.58017051202695247] [0:0.50324514538838172] [0:0.93920845176511392] [0:0.55675213743548935] [0:0.52520324750238168] [0:0.73437812878565101] [0:0.52754270313966822] [0:0.96982463059985302] [0:0.6820090790774741] [0:0.84002385376853195] [0:1] [0:0.62651560184286181] [0:0.65628750472226915] [0:0.54236477163241481] [0:0.51472200663317946] [0:0.49664986294121571] [0:1] [0:0.65941953176681267] [0:0.77318125469429122] [0:0.97122782000302288] [0:0.64024085064218506] [0:0.824037823154948] [0:0.73923964570444733] [0:0.86536646201097889] [0:0.69230389239112733] [0:0.87180749584421735] [0:0.58614675982001729] [0:0.56262267405034161] [0:0.63938957938336138] [0:0.56653829666942535] [0:0.59191986597982693] [0:0.52844828946905398] [0:0.58169900763424587] [0:0.46863634186756614] [0:0.59885024562520195] [0:0.64755260083939836] [0:0.54495738920357817] [0:0.59628022621815235] [0:0.66786682254832008] [0:0.59926149023959163] [0:0.59690856914677948] [0:0.61925236598026678] [0:0.64979590861295811] [0:0.60985611672391959] [0:0.50232406181939715] [0:0.66928292084018948] [0:0.74673728293365393] [0:0.68060499225947857] [-1.7379308938980103:1.0906059741973877] [-1.089239239692688:0.58894205093383789] [-1.1821655035018921:2.0205211639404297] [-0.82447415590286255:0.7343483567237854] [-1.1712992191314697:1.1192556619644165] [-0.68944567441940308:1.2286070585250854] [-0.86665016412734985:1.0937358140945435] [-1.0462182760238647:1.0650186538696289] [-1.0623205900192261:1.0292924642562866] [-1.104617714881897:0.91910558938980103] [-0.8615652322769165:1.3684026002883911] [-1.0905745029449463:0.80699723958969116] [-0.94984996318817139:1.3426392078399658] [-0.36742290854454041:1.4053956270217896] [-0.97269576787948608:0.72853177785873413] [-1.4641175270080566:0.4329356849193573] [-0.5291258692741394:1.409794807434082] [-1.3739147186279297:0.86720561981201172] [-0.97887861728668213:0.84345740079879761] [-0.8739277720451355:1.206160306930542] [-0.84565204381942749:0.97381484508514404] [-0.76192164421081543:0.9953494668006897] [-1.0189468860626221:1.0757462978363037] [-1.0689812898635864:0.91545993089675903] [-1.354525089263916:0.87894958257675171] [-0.96792024374008179:1.2250065803527832] [-1.2946639060974121:0.75045663118362427] [-1.2121002674102783:0.86241656541824341] [-1.3657294511795044:0.98300892114639282] [-1.0073238611221313:1.1973165273666382] [-0.64192205667495728:1.3376561403274536] [-0.4654182493686676:1.3040000200271606] [-0.89612883329391479:0.63812839984893799] [-0.60768735408782959:1.662572979927063] [-0.98240691423416138:0.75763142108917236] [-1.197693943977356:0.90520042181015015] [-1.1932063102722168:0.95755189657211304] [-0.86327242851257324:1.0832947492599487] [-0.99901783466339111:1.2229022979736328] [-0.83514976501464844:1.4564535617828369] [-0.93699741363525391:0.95568579435348511] [-0.74740999937057495:1.2991131544113159] [-1.0656272172927856:0.89812624454498291] [-1.0677354335784912:1.0749372243881226] [-1.0352015495300293:0.62195676565170288] [-1.5452663898468018:0.72650647163391113] [-0.85087352991104126:1.1835364103317261] [-0.61864590644836426:1.1407796144485474] [-1.4536005258560181:0.672951340675354] [-1.3216170072555542:1.2172253131866455] [-1.0652867555618286:0.75485831499099731] [-1.0028482675552368:0.83045303821563721] [-1.3336174488067627:1.4374138116836548] [-1.3350244760513306:0.77492243051528931] [-1.2451221942901611:0.9112585186958313] [-1.0439357757568359:1.1640448570251465] [-0.61141777038574219:1.0046977996826172] [-1.1059250831604004:0.93711090087890625] [-0.91046023368835449:0.96939706802368164] [-0.88548243045806885:0.94532871246337891] [-0.74054455757141113:1.0240416526794434] [-1.2793933153152466:1.3535534143447876] [-1.2157622575759888:0.63736838102340698] [-1.2198892831802368:0.70143407583236694] [-0.80178630352020264:0.8395114541053772] [-0.79012966156005859:1.5755981206893921] [-1.0751348733901978:1.0549161434173584] [-1.3805927038192749:0.39774391055107117] [-0.84226131439208984:1.0655730962753296] [-1.5935231447219849:0.94708836078643799] [-1.2252659797668457:0.9755052924156189] [-0.81214892864227295:0.8936537504196167] [-1.5908386707305908:1.1343101263046265] [-1.1004563570022583:0.91436630487442017] [-1.1804096698760986:0.81481641530990601] [-0.77054476737976074:1.5306156873703003] [-0.56752973794937134:1.3081765174865723] [-1.2226579189300537:0.94657999277114868] [-1.7500888109207153:1.1782554388046265] [-0.97223961353302002:0.97077673673629761] [-1.0017426013946533:0.92633253335952759] [-1.0618374347686768:1.1261744499206543] [-1.2594681978225708:0.90180951356887817] [-0.85430246591567993:1.1870578527450562] [-1.0412824153900146:0.75624668598175049] [-1.0203726291656494:0.79827439785003662] [-0.78431224822998047:1.1182388067245483] [-1.5140678882598877:0.58484512567520142] [-0.54986304044723511:1.3132830858230591] [-1.8879425525665283:0.7218748927116394] [-0.72900855541229248:0.87201172113418579] [-1.1991269588470459:1.2008196115493774] [-0.42255598306655884:1.4074673652648926] [-0.72602206468582153:1.26719069480896] [-1.1480202674865723:1.1832269430160522] [-0.44667136669158936:1.7092553377151489] [-0.89700055122375488:1.0273274183273315] [-1.2508608102798462:0.99662321805953979] [-1.1281890869140625:1.2692036628723145] [-1.1750197410583496:0.8688056468963623] [-1.0370708703994751:1.1614533662796021] [-1.2505248785018921:0.51156240701675415] [-0.35836321115493774:2.1699783802032471] [-1.0629154443740845:0.55122518539428711] [-1.2768884897232056:1.4933464527130127] [-0.68412655591964722:1.1000446081161499] [-0.85666263103485107:1.1241490840911865] [-1.26007080078125:0.90263056755065918] [-1.2827892303466797:0.76929378509521484] [-0.31661030650138855:1.4338052272796631] [-1.1714838743209839:1.1893413066864014] [-0.90355664491653442:1.0587130784988403] [-1.0807904005050659:1.232346773147583] [-0.96771806478500366:0.95241707563400269] [-0.76338917016983032:0.97173243761062622] [-1.1069806814193726:0.69799143075942993] [-0.98395717144012451:1.2256119251251221] [-1.3201990127563477:1.548859715461731] [-0.55581969022750854:1.5291354656219482] [-1.3316075801849365:0.62440747022628784] [-0.97299355268478394:1.0950664281845093] [-0.77063727378845215:1.713047981262207] [-0.89571851491928101:0.81066203117370605] [-0.98397165536880493:1.1402658224105835] [-1.2856836318969727:1.1790071725845337] [-1.3142656087875366:0.71884775161743164] [-1.1562116146087646:0.97181737422943115] [-1.1369799375534058:0.63395988941192627] [-0.70025765895843506:1.6476353406906128] [-1.0896127223968506:1.1876276731491089] [-0.81946265697479248:1.5404893159866333] [-1.0568075180053711:0.78998488187789917] [-1.0141632556915283:1.0758596658706665] [-0.83448606729507446:0.82954418659210205] [-0.92582416534423828:1.1162883043289185] [-0.88725775480270386:0.7337985634803772] [-0.93390238285064697:1.3051114082336426] [-0.72543412446975708:1.076970100402832] [-1.1814348697662354:0.83219349384307861] [-1.3104219436645508:1.3353906869888306] [-1.2773164510726929:0.73393303155899048] [-0.83679938316345215:1.2532925605773926] [-1.1029402017593384:1.2828290462493896] [-1.0300744771957397:0.94917351007461548] [-0.91899985074996948:0.6894233226776123] [-1.3915530443191528:0.52993565797805786] [-1.479941725730896:0.72431522607803345] [-0.90019416809082031:1.5667957067489624] [-1.6405980587005615:0.78124797344207764] [-1.0071815252304077:0.80546623468399048] [-0.78947949409484863:1.091227650642395] [-1.1120345592498779:1.0493483543395996] [-0.6881636381149292:1.3561335802078247] [-1.165080189704895:1.3465031385421753] [-1.1880359649658203:0.97190845012664795] [-0.69593501091003418:1.2095339298248291] [-1.1150482892990112:0.92917323112487793] [-1.4514486789703369:1.1724070310592651] [-0.81758719682693481:0.84146249294281006] [-1.3964235782623291:1.0694981813430786] [-0.92417669296264648:0.97138035297393799] [-0.86416101455688477:1.0254286527633667] [-1.2596116065979004:0.8003464937210083] [-0.89215397834777832:1.5307602882385254] [-0.93947428464889526:1.015535831451416] [-1.2183376550674438:0.61154335737228394] [-1.0602240562438965:0.73596727848052979] [-1.3394535779953003:0.50872999429702759] [-0.93622308969497681:0.8312985897064209] [-0.39457395672798157:1.8389574289321899] [-0.91643303632736206:0.93162482976913452] [-1.2207885980606079:0.88136023283004761] [-1.7196663618087769:0.71779030561447144] [-1.0100834369659424:1.3615251779556274] [-0.9494895339012146:1.0723826885223389] [-1.2288466691970825:1.515495777130127] [-0.59975677728652954:1.0530261993408203] [-0.74948334693908691:0.99066203832626343] [-0.90064120292663574:1.1086095571517944] [-1.1233505010604858:0.6329006552696228] [-1.4166786670684814:0.84176194667816162] [-1.2665554285049438:0.91842353343963623] [-1.1111403703689575:0.85055094957351685] [-1.2175959348678589:0.86368060111999512] [-0.88940417766571045:1.064059853553772] [-1.2526357173919678:1.0394580364227295] [-0.72134661674499512:0.99276232719421387] [-1.3294050693511963:0.74697744846343994] [-0.84710019826889038:1.0477776527404785] [-1.8085008859634399:0.85483932495117188] [-1.1740022897720337:1.2556513547897339] [-0.68900465965270996:0.94489461183547974] [-1.2162837982177734:0.9191020131111145] [-0.72400927543640137:1.2475545406341553] [-0.82573080062866211:1.2679346799850464] [-0.44583585858345032:1.1224455833435059] [-1.0044440031051636:0.92714190483093262] [-0.97680395841598511:0.88188433647155762] [-1.3782869577407837:1.0377764701843262] [-1.5987012386322021:0.84230053424835205] [-1.2405198812484741:0.6845279335975647] [-0.96395576000213623:0.76908630132675171] [-1.0594478845596313:0.58708757162094116] [-0.9472506046295166:0.73477053642272949] [-0.99760699272155762:0.583793044090271] [-0.6572762131690979:1.4766982793807983] [-0.99975806474685669:0.84257781505584717] [-1.019890308380127:0.57902193069458008] [-0.86873871088027954:0.77598071098327637] [-0.3928857147693634:1.9280744791030884] [-1.2339694499969482:0.74848902225494385] [-0.52769607305526733:1.4586188793182373] [-0.52951771020889282:1.5298399925231934] [-1.0479352474212646:0.58938348293304443] [-0.90957129001617432:1.3116374015808105] [-0.8149910569190979:1.2327408790588379] [-0.7180025577545166:1.5875179767608643] [-1.0464589595794678:0.81373697519302368] [-1.0283639430999756:0.99843776226043701] [-0.78935068845748901:0.73223954439163208] [-0.9088626503944397:1.2249913215637207] [-0.98677641153335571:0.94170695543289185] [-1.3483387231826782:1.3337563276290894] [-1.1383224725723267:0.72577917575836182] [-0.88966244459152222:0.72881680727005005] [-1.1889026165008545:0.54329270124435425] [-0.66318279504776001:1.0767817497253418] [0.16739092767238617:1.1615874767303467] [-0.77915346622467041:0.8401375412940979] [-1.2412381172180176:0.89614248275756836] [-1.3749896287918091:1.0857734680175781] [-1.4429583549499512:0.28545621037483215] [-1.1723217964172363:1.7937253713607788] [-1.189547061920166:1.0833674669265747] [-1.4372917413711548:0.19303303956985474] [-0.97099614143371582:1.0358878374099731] [-0.80607718229293823:1.4200369119644165] [-0.87244296073913574:0.87484049797058105] [-0.86398273706436157:1.0269798040390015] [-0.86738252639770508:1.0192391872406006] [-0.85889792442321777:1.1976915597915649] [-1.1700092554092407:0.80938845872879028] [-0.83707660436630249:1.0822899341583252] [-0.93135815858840942:1.0583294630050659] [-1.0829199552536011:1.0390313863754272] [-1.0834722518920898:0.83140653371810913] [-1.4645721912384033:0.60844063758850098] [-1.1313645839691162:0.60374844074249268] [-1.0806934833526611:1.1862438917160034] [-1.3546812534332275:0.92340898513793945] [-1.1734387874603271:0.56707924604415894] [-1.1346347332000732:1.3931276798248291] [-1.1624245643615723:0.95758980512619019] [-0.92604190111160278:1.2663618326187134] [-1.1979594230651855:0.78443092107772827] [-0.45900169014930725:1.3546264171600342] [-1.0631133317947388:1.5436362028121948] [-1.0168184041976929:0.80749732255935669] [-0.73724114894866943:1.2776665687561035] [-1.1966758966445923:0.67605131864547729] [-0.74184560775756836:0.95245182514190674] [-1.5936236381530762:0.58786362409591675] [-1.2092480659484863:1.2322770357131958] [-0.55513900518417358:1.2127412557601929] [-0.80098444223403931:1.4053475856781006] [-0.96075183153152466:1.1741963624954224] [-1.7142097949981689:0.79427242279052734] [-0.75135767459869385:0.88237273693084717] [-1.0029294490814209:0.86372596025466919] [-1.3352358341217041:0.66436868906021118] [-1.5242352485656738:0.82260221242904663] [-0.65685534477233887:1.3214734792709351] [-0.99848902225494385:0.83196449279785156] [-0.60112613439559937:1.0902365446090698] [-0.9594883918762207:1.2890315055847168] [-0.79892838001251221:1.2126044034957886] [-0.8680272102355957:0.77244484424591064] [-0.89919441938400269:1.5890716314315796] [-1.5316370725631714:1.4810848236083984] [-0.60280603170394897:1.0290607213973999] [-0.9292789101600647:0.81863290071487427] [-0.95887523889541626:1.6126281023025513] [-0.79491150379180908:1.1216175556182861] [-0.95839947462081909:0.98159182071685791] [-1.1167137622833252:0.65857195854187012] [-1.143083930015564:0.86887478828430176] [-0.90844225883483887:1.3366386890411377] [-0.91678547859191895:1.1923940181732178] [-1.1704001426696777:1.1378666162490845] [-1.3853803873062134:1.0645025968551636] [-1.0904704332351685:1.0359101295471191] [-1.1086745262145996:0.52297580242156982] [-1.1064624786376953:1.0199657678604126] [-1.0313029289245605:1.1290203332901001] [-1.6690655946731567:0.8659595251083374] [-1.5481338500976562:0.83452475070953369] [-1.1910965442657471:0.6538083553314209] [-0.88638722896575928:1.1128902435302734] [-1.1600205898284912:1.4515954256057739] [-1.2478662729263306:0.56206339597702026] [-0.75479400157928467:1.193270206451416] [-1.0175021886825562:1.1871813535690308] [-1.503859281539917:0.86077940464019775] [-0.62251585721969604:1.0860276222229004] [-0.99413543939590454:0.54420912265777588] [-0.86908864974975586:0.75783288478851318] [-0.66857951879501343:1.0667356252670288] [-1.2191232442855835:0.75338435173034668] [-0.94227230548858643:1.2654460668563843] [-1.0149143934249878:1.0213578939437866] [-1.4614777565002441:0.53636926412582397] [-1.1356061697006226:1.4195339679718018] [-1.0156667232513428:0.56701052188873291] [-0.57739067077636719:1.4019136428833008] [-1.0571861267089844:1.0329080820083618] [-0.9991222620010376:1.049562931060791] [-0.76638495922088623:1.032522439956665] [-0.57892012596130371:1.1711758375167847] [-0.93220740556716919:1.0245155096054077] [-0.79603582620620728:0.92758738994598389] [-0.98153030872344971:0.93815428018569946] [-0.63039267063140869:1.2564902305603027] [-0.9534454345703125:1.3716397285461426] [-1.8095132112503052:1.0573621988296509] [-1.1014569997787476:0.9626622200012207] [-0.67946183681488037:1.3799575567245483] [-1.3700102567672729:0.95981377363204956] [-1.1613194942474365:0.74525988101959229] [-0.7365073561668396:1.2522997856140137] [-0.96563339233398438:0.69499242305755615] [-1.0263934135437012:0.86782920360565186] [-1.2980406284332275:1.9348733425140381] [-1.2258824110031128:0.79931133985519409] [-1.4570297002792358:0.63314557075500488] [-1.2139846086502075:0.60136008262634277] [-1.0592895746231079:0.8687971830368042] [-0.99054247140884399:1.0130475759506226] [-1.132988452911377:0.425251305103302] [-1.495882511138916:0.85342150926589966] [-1.067416787147522:0.9463011622428894] [-0.70224893093109131:1.4417496919631958] [-1.2200462818145752:0.88666212558746338] [-0.44679209589958191:1.7452771663665771] [-1.0318642854690552:0.90579187870025635] [-0.92567163705825806:1.364281177520752] [-1.0057568550109863:1.1629691123962402] [-0.91447657346725464:0.95600038766860962] [-1.6832472085952759:1.0883796215057373] [-1.0914934873580933:0.81190848350524902] [-1.3841029405593872:0.79580509662628174] [-0.84829437732696533:1.0781995058059692] [-0.882191002368927:0.64426970481872559] [-0.72439944744110107:1.0872025489807129] [-1.1594741344451904:1.1323939561843872] [-0.87016791105270386:0.78196036815643311] [-1.0299060344696045:1.3658615350723267] [-1.7092785835266113:0.68152707815170288] [-1.3620562553405762:0.53060650825500488] [-0.95625436305999756:0.83026540279388428] [-1.1874167919158936:1.4495692253112793] [-0.39159554243087769:0.97214013338088989] [-1.5561227798461914:1.5994226932525635] [-0.69183385372161865:1.0276558399200439] [-1.0283633470535278:0.63850677013397217] [-1.0862746238708496:0.74625009298324585] [-1.1926218271255493:1.1086025238037109] [-1.3774656057357788:0.69512003660202026] [-1.5771714448928833:0.71112352609634399] [-0.81649857759475708:0.93581205606460571] [-1.2941817045211792:1.8105782270431519] [-0.59856498241424561:0.83413201570510864] [-0.8363642692565918:1.4776411056518555] [-1.3756080865859985:0.54377692937850952] [-2.1000244617462158:0.74733471870422363] [-1.0286955833435059:1.0566517114639282] [-0.85328221321105957:0.95561927556991577] [-1.5046483278274536:1.240440845489502] [-1.2669709920883179:0.62351912260055542] [-1.0089007616043091:1.755662202835083] [-0.54385495185852051:0.89588004350662231] [-0.48534587025642395:1.5536589622497559] [-1.4509690999984741:0.47407251596450806] [-0.61738622188568115:1.3596199750900269] [-1.2290350198745728:1.3082958459854126] [-0.95966792106628418:0.77691477537155151] [-1.0522576570510864:0.63673263788223267] [-1.1936740875244141:0.89877480268478394] [-2.0067093372344971:1.4823895692825317] [-0.7760280966758728:1.3359459638595581] [-1.0096421241760254:0.68988281488418579] [-0.88638263940811157:0.89813244342803955] [-0.66102743148803711:1.3064161539077759] [-1.2472329139709473:1.0974820852279663] [-0.92178547382354736:1.3025937080383301] [-1.0047502517700195:0.90138256549835205] [-1.2856701612472534:0.77152395248413086] [-0.73384338617324829:1.0197749137878418] [-1.2136421203613281:1.3801270723342896] [-1.641077995300293:0.79574030637741089] [-0.83699452877044678:0.85792481899261475] [-1.1939530372619629:1.1444491147994995] [-1.3032810688018799:1.3644901514053345] [-0.64581513404846191:1.2699599266052246] [-0.71094131469726562:1.2252494096755981] [-1.1528034210205078:1.0895836353302002] [-1.0779792070388794:0.70272147655487061] [-0.42105695605278015:1.584212064743042] [-0.74792861938476562:0.88999760150909424] [-1.1373497247695923:0.50475072860717773] [-0.86357593536376953:0.92967987060546875] [-1.0547163486480713:0.90012770891189575] [-1.0408487319946289:0.86977893114089966] [-0.91124844551086426:1.2756226062774658] [-0.92215090990066528:1.2472633123397827] [-0.73635673522949219:1.0993351936340332] [-0.64938533306121826:1.0633696317672729] [-1.581652045249939:0.89925301074981689] [-1.3128186464309692:1.1809306144714355] [-0.99071335792541504:1.0112391710281372] [-0.50389909744262695:1.5377229452133179] [-0.75509613752365112:1.0205130577087402] [-0.82595086097717285:0.63476914167404175] [-1.1731544733047485:0.85011875629425049] [-3.7140483856201172:-0.28255572915077209] [-0.97722792625427246:0.94695752859115601] [-0.96722173690795898:0.66926819086074829] [-1.2939774990081787:0.78337955474853516] [-1.1362648010253906:1.5266473293304443] [-1.5899261236190796:0.53323537111282349] [-0.85374635457992554:0.70983076095581055] [-1.3125022649765015:0.49005126953125] [-0.95540434122085571:1.1748760938644409] [-1.0292108058929443:0.79941713809967041] [-0.89386963844299316:0.73720234632492065] [-1.1311805248260498:0.93832921981811523] [-1.4730061292648315:0.60195803642272949] [-0.90614664554595947:0.85482394695281982] [-1.4410074949264526:0.96639668941497803] [-1.2236239910125732:0.81387662887573242] [-0.7334328293800354:0.94784146547317505] [-0.40010318160057068:1.5719013214111328] [-1.1492377519607544:0.97236347198486328] [-0.68465238809585571:0.84351807832717896] [-0.96691614389419556:1.0255951881408691] [-0.91507649421691895:1.1070923805236816] [-0.918212890625:1.2446789741516113] [-1.2402125597000122:0.95087391138076782] [-1.2457123994827271:0.66375970840454102] [-0.97814911603927612:0.84749883413314819] [-0.87796097993850708:0.7770988941192627] [-0.95139926671981812:1.5809779167175293] [-1.8710392713546753:0.3434101939201355] [-0.72592592239379883:1.0031143426895142] [-0.86494249105453491:0.96412551403045654] [-0.80882173776626587:1.5002608299255371] [-1.5360831022262573:0.65555411577224731] [-1.5147675275802612:0.89659327268600464] [-0.72884839773178101:1.1416870355606079] [-0.9145246148109436:0.93037319183349609] [-1.3262207508087158:0.63304424285888672] [-1.6635310649871826:0.78230440616607666] [-0.59593367576599121:0.97074872255325317] [-1.1579667329788208:0.69447332620620728] [-0.75868046283721924:0.83198314905166626] [-1.173237681388855:1.459486722946167] [-1.1584632396697998:1.2207577228546143] [-0.88434678316116333:1.0992914438247681] [-0.74777680635452271:0.94740587472915649] [-1.0402435064315796:0.90083503723144531] [-0.40082511305809021:1.7786139249801636] [-1.3767176866531372:0.91419237852096558] [-0.85036146640777588:0.94473600387573242] [-0.90448480844497681:0.96870255470275879] [-1.1991221904754639:0.91846483945846558] [-1.24396812915802:0.75287985801696777] [-0.94361525774002075:0.77535992860794067] [-0.77542513608932495:1.3513580560684204] [-0.87114006280899048:0.64520657062530518] [-1.6494884490966797:1.0535258054733276] [-1.6112130880355835:1.2699514627456665] [-0.94662368297576904:0.91982740163803101] [-0.80737686157226562:1.4523489475250244] [-0.71219426393508911:1.5433534383773804] [-1.2883057594299316:0.72328555583953857] [-0.73585200309753418:1.0545433759689331] [-0.5672677755355835:0.98237591981887817] [-0.82793039083480835:1.2002625465393066] [-1.0304185152053833:1.5558872222900391] [-1.0176370143890381:1.6320886611938477] [-0.92031759023666382:0.83337950706481934] [-0.78912782669067383:0.97473490238189697] [-1.11555016040802:1.0720860958099365] [-1.1749396324157715:0.70197528600692749] [-1.6845417022705078:0.94458657503128052] [-1.0606198310852051:0.76320552825927734] [-0.92164707183837891:1.2194297313690186] [-0.91765594482421875:1.3815350532531738] [-1.2043625116348267:0.9138563871383667] [-1.4836361408233643:1.5939174890518188] [-1.0226390361785889:1.057404637336731] [-1.4168838262557983:0.65843844413757324] [-0.54443985223770142:1.3645080327987671] [-1.1046005487442017:0.70577657222747803] [-0.85849273204803467:1.5540337562561035] [-0.89372807741165161:0.7980649471282959] [-0.93095415830612183:0.77036595344543457] [-1.3577615022659302:0.64852368831634521] [-0.87218791246414185:1.0843267440795898] [-0.98786312341690063:0.50935417413711548] [-1.0055627822875977:1.000989556312561] [-1.4505006074905396:0.49147665500640869] [-1.7092498540878296:0.48872947692871094] [-1.1175880432128906:1.1438800096511841] [-0.80144411325454712:0.67861717939376831] [-0.98872900009155273:0.78405719995498657] [-0.94443726539611816:0.97079896926879883] [-0.81390458345413208:0.6938091516494751] [-0.77355468273162842:1.1290066242218018] [-1.0063203573226929:0.68870019912719727] [-0.9243617057800293:1.2121258974075317] [-1.2660772800445557:1.6004873514175415] [-0.92420840263366699:1.3454571962356567] [-0.75142979621887207:1.3074380159378052] [-0.84308379888534546:0.79557621479034424] [-1.2665705680847168:0.79047936201095581] [-0.97240257263183594:1.088518500328064] [-1.2180579900741577:0.85074508190155029] [-1.2697408199310303:1.0531349182128906] [-0.97153729200363159:1.001372218132019] [-0.99193620681762695:0.7836652398109436] [-1.1297768354415894:0.63360029458999634] [-0.73531073331832886:0.8709142804145813] [-0.95134037733078003:0.61355960369110107] [-0.6945033073425293:1.188493013381958] [-0.7421576976776123:0.74719148874282837] [-0.9985470175743103:1.3657302856445312] [-1.1133949756622314:0.66819655895233154] [-1.4987187385559082:1.0194075107574463] [-1.4232082366943359:0.86361664533615112] [-0.43817314505577087:1.4887274503707886] [-1.2316521406173706:1.0233000516891479] [-0.79772329330444336:1.3667155504226685] [-1.2624413967132568:1.0300379991531372] [-0.94679439067840576:1.0069319009780884] [-0.80983966588973999:1.1281648874282837] [-1.0396907329559326:1.0567198991775513] [-0.93805849552154541:0.49434137344360352] [-1.1075657606124878:0.86376619338989258] [-0.93908429145812988:1.5903809070587158] [-0.7283480167388916:1.272159218788147] [-1.3556613922119141:0.49602979421615601] [-0.94262552261352539:1.3473297357559204] [-0.48327732086181641:1.1937693357467651] [-0.68783646821975708:1.180875301361084] [-0.9916263222694397:1.0179867744445801] [-0.7401471734046936:1.2189422845840454] [-0.64257329702377319:1.3392899036407471] [-1.0888583660125732:0.7866206169128418] [-0.51845681667327881:1.2112631797790527] [-0.70451825857162476:1.3861687183380127] [-0.99094009399414062:1.1161253452301025] [-1.1891007423400879:1.2089141607284546] [-1.0510789155960083:0.62772154808044434] [-1.1041628122329712:1.1095206737518311] [-0.77389800548553467:0.93396437168121338] [-1.2689388990402222:1.2007637023925781] [-1.1519907712936401:0.65386104583740234] [-1.0735026597976685:1.0860282182693481] [-1.2687647342681885:0.77592116594314575] [-0.9826894998550415:1.3924682140350342] [-0.96848875284194946:1.1305637359619141] [-1.1098434925079346:1.1219526529312134] [-0.98830205202102661:1.2492389678955078] [-1.1509443521499634:0.55363541841506958] [-1.0805356502532959:0.68885207176208496] [-1.0460582971572876:1.0811283588409424] [-1.6394834518432617:0.68804395198822021] [-1.1325068473815918:0.88152498006820679] [-0.84575670957565308:1.5450230836868286] [-1.2426540851593018:0.7646825909614563] [-1.0469759702682495:1.2202620506286621] [-0.85722005367279053:1.0832974910736084] [-0.72577643394470215:1.5148874521255493] [-0.80254745483398438:0.6839790940284729] [-1.1011048555374146:0.92601269483566284] [-1.0676279067993164:0.96200358867645264] [-0.90079665184020996:0.85443621873855591] [-1.4351468086242676:1.4088404178619385] [-1.2080334424972534:0.81735676527023315] [-0.73693990707397461:1.0551964044570923] [-0.6940883994102478:1.0148036479949951] [-1.625225305557251:0.80779159069061279] [-1.4328887462615967:1.1519055366516113] [-0.88338774442672729:0.79158616065979004] [-0.64613598585128784:1.4433776140213013] [-1.0377141237258911:1.2339411973953247] [-0.73560160398483276:1.375907301902771] [-0.98034298419952393:0.7410438060760498] [-0.67277497053146362:1.363301157951355] [-0.97651183605194092:1.2580195665359497] [-0.9329569935798645:0.86927467584609985] [-1.6539844274520874:0.74056357145309448] [-0.73883360624313354:1.3151838779449463] [-1.4633407592773438:0.68927973508834839] [-1.7721090316772461:0.57629245519638062] [-0.94494104385375977:1.0720123052597046] [-0.72357511520385742:0.65606540441513062] [-0.6439201831817627:1.1972912549972534] [-1.7643450498580933:1.3608639240264893] [-1.1787095069885254:1.0810607671737671] [-0.61985665559768677:1.4623713493347168] [-1.148760199546814:0.49834904074668884] [-1.1136897802352905:1.1187422275543213] [-1.1121894121170044:0.66798186302185059] [-1.3431499004364014:0.84677398204803467] [-1.5866427421569824:0.58102321624755859] [-1.1377612352371216:0.90172094106674194] [-1.4569634199142456:0.87473970651626587] [-1.2830058336257935:0.96322149038314819] [-1.3177734613418579:1.0959956645965576] [-0.84461593627929688:1.3524907827377319] [-1.2705971002578735:1.123390793800354] [-0.75286173820495605:1.7294387817382812] [-1.6487290859222412:0.37147045135498047] [-1.1251561641693115:1.1239466667175293] [-0.82890200614929199:0.8736034631729126] [-1.1025360822677612:1.4567489624023438] [-0.77555727958679199:1.1649389266967773] [-0.92641764879226685:0.95145726203918457] [-1.3582535982131958:0.56369829177856445] [-1.1098102331161499:0.61528736352920532] [-1.0215567350387573:1.027529239654541] [-0.9317585825920105:1.0613852739334106] [-1.0867446660995483:0.84979528188705444] [-1.0271062850952148:1.0249166488647461] [-0.59935879707336426:1.4922527074813843] [-1.0309370756149292:0.60749703645706177] [-0.9913908839225769:0.91016662120819092] [-0.6975213885307312:1.3256503343582153] [-1.2000750303268433:0.71053224802017212] [-0.86669409275054932:1.0164222717285156] [-0.85918271541595459:1.0703542232513428] [-1.3811582326889038:0.52930021286010742] [-1.4476737976074219:0.80842876434326172] [-0.79441714286804199:0.92414247989654541] [-1.1620858907699585:0.85071563720703125] [-1.2983483076095581:0.6811903715133667] [-0.63337540626525879:1.2140356302261353] [-1.4772992134094238:0.90573418140411377] [-0.90764832496643066:1.0290696620941162] [-0.63037747144699097:1.6840757131576538] [-1.0771691799163818:0.97678893804550171] [-0.65459984540939331:1.2809983491897583] [-1.0513168573379517:1.3071154356002808] [-0.7775956392288208:1.0854355096817017] [-0.65240633487701416:1.2587279081344604] [-0.84136325120925903:1.326996922492981] [-1.2389951944351196:0.54505032300949097] [-1.2153688669204712:0.52142268419265747] [-0.4738926887512207:1.5058232545852661] [-0.32687124609947205:1.2892063856124878] [-0.90751689672470093:0.95361006259918213] [-0.84162807464599609:2.1140432357788086] [-0.99125903844833374:0.87453985214233398] [-1.1661564111709595:0.84457486867904663] [-0.65175831317901611:1.6106406450271606] [-1.5061936378479004:0.75884145498275757] [-1.2017732858657837:0.57436573505401611] [-0.70810884237289429:0.91173261404037476] [-1.1330673694610596:0.93955755233764648] [-1.156923770904541:0.8152119517326355] [-1.5639923810958862:0.63665980100631714] [-0.64176356792449951:1.1679897308349609] [-1.023399829864502:0.99889510869979858] [-0.57315737009048462:1.6530855894088745] [-0.9936792254447937:0.91672706604003906] [-0.91600728034973145:0.73549705743789673] [-0.79166901111602783:1.0297278165817261] [-1.0231248140335083:0.85418528318405151] [-0.8918498158454895:0.9342607855796814] [-1.1554838418960571:0.89835691452026367] [-1.18743896484375:1.0183889865875244] [-0.44777345657348633:1.2648744583129883] [-0.84876251220703125:1.0220279693603516] [-0.57732212543487549:1.1467304229736328] [-0.85200345516204834:0.7963452935218811] [-0.80633723735809326:1.0045610666275024] [-1.4243038892745972:0.85857707262039185] [-1.4295985698699951:1.3110086917877197] [-1.0321353673934937:1.0284682512283325] [-1.0869356393814087:1.0992614030838013] [-0.97216987609863281:0.79712074995040894] [-1.0073088407516479:1.1163715124130249] [-1.0914421081542969:0.74103409051895142] [-1.2686698436737061:1.2131335735321045] [-1.0094984769821167:1.0484747886657715] [-1.0255585908889771:1.1602808237075806] [-0.68504500389099121:1.3114615678787231] [-0.71728712320327759:1.0908995866775513] [-1.4251431226730347:0.82547158002853394] [-1.2350808382034302:0.87009042501449585] [-1.6340965032577515:1.2085922956466675] [-0.79889947175979614:1.1003546714782715] [-1.2520774602890015:0.78455638885498047] [-1.0349514484405518:0.99314725399017334] [-1.4752899408340454:0.43937984108924866] [-0.6668047308921814:1.1284159421920776] [-1.6343218088150024:0.82289391756057739] [-0.91740155220031738:0.69074529409408569] [-1.0748682022094727:0.81916391849517822] [-1.7634670734405518:1.3522107601165771] [-0.88793432712554932:0.56559622287750244] [-0.78665024042129517:1.1254476308822632] [-1.5244874954223633:0.77226269245147705] [-1.4173336029052734:0.75570487976074219] [-1.1299951076507568:0.7133517861366272] [-1.1829510927200317:0.91862523555755615] [-1.4509543180465698:0.76507759094238281] [-0.9426836371421814:0.97988873720169067] [-0.53352433443069458:1.061125636100769] [-1.0088974237442017:1.067876935005188] [-1.3674761056900024:1.05753493309021] [-1.183838963508606:0.90788483619689941] [-0.8082079291343689:0.89716547727584839] [-0.8433908224105835:0.83730417490005493] [-1.023221492767334:1.5249279737472534] [-1.2548329830169678:0.98198109865188599] [-0.67410659790039062:0.94684326648712158] [-0.89106863737106323:0.78634315729141235] [-1.2339317798614502:1.1131472587585449] [-1.1832325458526611:0.76126086711883545] [-2.173269510269165:1.2951151132583618] [-0.84599679708480835:0.90288186073303223] [-1.2673342227935791:0.73212575912475586] [-1.0589886903762817:1.1114671230316162] [-1.1109033823013306:1.0452729463577271] [-1.1243205070495605:1.0352641344070435] [-1.0684797763824463:1.1340515613555908] [-1.2322641611099243:1.0950858592987061] [-1.0223296880722046:0.89695608615875244] [-1.3688027858734131:0.88202941417694092] [-1.413618803024292:0.67991775274276733] [-1.0188529491424561:1.211418628692627] [-0.77789539098739624:0.97972095012664795] [-1.1476131677627563:1.0663055181503296] [-0.6748313307762146:0.99011760950088501] [-0.83588254451751709:1.4686384201049805] [-1.0061860084533691:1.3458101749420166] [-0.95853358507156372:0.90133321285247803] [-1.1699349880218506:0.99511957168579102] [-0.51341593265533447:1.1192070245742798] [-1.4283949136734009:0.6424834132194519] [-0.88369745016098022:1.0576990842819214] [-0.87879055738449097:0.74662554264068604] [-0.86440062522888184:0.90082752704620361] [-0.69346827268600464:0.77364045381546021] [-1.2172650098800659:0.56653290987014771] [-1.1577212810516357:0.82821130752563477] [-0.74944567680358887:1.0594944953918457] [-0.7980269193649292:0.98112624883651733] [-1.5049420595169067:0.50347548723220825] [-1.6315405368804932:0.53926455974578857] [-0.79334414005279541:1.2820652723312378] [-0.90519016981124878:1.291656494140625] [-0.79036670923233032:0.90644139051437378] [-0.43787184357643127:2.0167627334594727] [-0.52379333972930908:1.7273960113525391] [-1.587224006652832:0.67538291215896606] [0:10] [1:56] [0:10] [1:505] [0:10]
tree_sizes=3420 3018 3040 3040 3036 3033 3043 3042 3045 3058 3034 3186 3036 3048 3014 3051 3030 3313 3048 3040 3044 3291 3049 3028 3023 3061 3295 3046 3029 3002 3291 3052 3031 3047 3059 3334 3057 3050 3035 3296 3044 3060 3053 3214 3486 3057 3333 3055 3052 3036 4187 3054 3053 3055 3035 4764 3011 3040 3806 2996 3324 3277 3067 3327 2987 3059 3322 3054 3241 3058 3354 3065 3082

Tree=0
num_leaves=31
num_cat=2
split_feature=9 1283 9 1283 9 1283 9 1283 1283 1283 9 1283 9 9 1283 9 0 1283 964 1282 9 8 9 9 8 1282 1283 9 755 0
split_gain=85509.9 34715.7 12631 10992.9 6406.87 6043.22 3784.69 2674.87 2082.42 1959.82 1569.09 1136 774.191 742.43 556.982 554.128 519.891 515.891 515.017 458.673 455.552 410.6 372.347 335.707 350.941 324.763 321.783 318.12 301.482 286.527
threshold=1.0000000180025095e-35 7.5222222805023202 8.8090910911560076 6.1318895816802987 7.4632539749145517 8.2751855850219744 7.3814382553100595 4.0625000000000009 7.011111021041871 9.2052631378173846 8.6761908531188983 7.8337399959564218 2.0099999904632573 9.5357141494750994 5.7284209728240976 4.5736224651336679 1323861.0000000002 3.0714285373687749 -0.33777214586734766 4.5000000000000009 5.1955828666687021 0 4.1049191951751718 5.6010751724243173 1 8.5000000000000018 6.5941176414489755 9.3666663169860858 0.2670359760522843 1393453.0000000002
decision_type=2 2 2 2 2 2 2 2 2 2 2 2 2 2 2 2 2 2 2 2 2 9 2 2 9 2 2 2 2 2
left_child=-1 3 5 6 8 11 7 17 12 18 -6 22 -5 -4 20 19 23 -2 -7 28 -9 -17 25 24 -13 -3 -14 -8 -10 -23
right_child=1 2 13 4 10 9 27 14 15 -11 -12 16 26 -15 -16 21 -18 -19 -20 -21 -22 29 -24 -25 -26 -27 -28 -29 -30 -31
leaf_value=7.5803630779199374 7.6058763021334812 7.650174415542069 7.6715303873757366 7.633658985473688 7.6613136892575424 7.6464254078722202 7.6602740252450809 7.6305428096210415 7.646424161024159 7.6765053697983419 7.6774481821751008 7.6502739168594696 7.6446735589419461 7.6802457711801253 7.6405135101919388 7.65801873420157 7.6626933471815528 7.622948719955307 7.6652246449109498 7.6519844422499421 7.6437712845417867 7.6522059180740438 7.6578126319884969 7.6609668828995829 7.6587549637243733 7.6565838763653868 7.6488183614115464 7.6799961475388372 7.6240758505819892 7.6565678860997552
leaf_weight=1434 291 1305 1353 425 1671 147 257 1473 1431 1652 943 503 2762 3535 2062 2152 7203 457 15309 3952 317 6978 13029 9082 10149 2006 5835 120 63 1921
leaf_count=1434 291 1305 1353 425 1671 147 257 1473 1431 1652 943 503 2762 3535 2062 2152 7203 457 15309 3952 317 6978 13029 9082 10149 2006 5835 120 63 1921
internal_value=7.65702 7.65814 7.66237 7.6498 7.65223 7.66112 7.6361 7.63361 7.6507 7.66615 7.66714 7.65913 7.64683 7.67783 7.63697 7.65281 7.66039 7.6163 7.66505 7.6502 7.63288 7.6541 7.65705 7.65955 7.65835 7.65406 7.64749 7.66656 7.64548 7.65315
internal_weight=99817 98383 65273 33110 28133 60385 4977 4600 25519 17108 2614 43277 9022 4888 3852 16497 26937 748 15456 5446 1790 11051 16340 19734 10652 3311 8597 377 1494 8899
internal_count=99817 98383 65273 33110 28133 60385 4977 4600 25519 17108 2614 43277 9022 4888 3852 16497 26937 748 15456 5446 1790 11051 16340 19734 10652 3311 8597 377 1494 8899
cat_boundaries=0 102 205
cat_threshold=0 0 0 2147483648 0 0 524288 4194304 0 0 4194304 0 0 0 536870912 0 0 4194304 0 8192 0 0 0 0 4194304 0 1 0 0 0 0 0 0 0 1048576 0 256 0 2097152 0 0 0 0 0 0 2 0 0 0 0 131072 0 0 0 0 0 0 128 0 0 8192 0 0 0 0 262144 16777216 64 0 0 0 0 64 0 32768 0 0 64 37748736 0 0 0 0 0 0 0 0 0 524288 0 0 32768 0 2048 0 16 0 0 0 4 0 4194304 16385 0 0 0 0 0 33554432 4194304 0 0 0 0 0 0 0 0 0 0 8 0 0 0 2048 32768 0 0 16777216 0 0 0 0 0 0 0 0 0 256 268435456 0 0 0 0 0 0 0 0 0 0 0 0 0 0 2147483648 0 0 16777218 0 0 0 0 0 0 0 0 0 262144 0 0 0 0 0 0 0 0 0 0 128 0 0 0 0 0 0 0 0 0 0 0 0 0 8388608 4096 0 0 0 0 0 0 0 0 64 0 8519680
is_linear=0
shrinkage=1


Tree=1
num_leaves=31
num_cat=0
split_feature=1279 1279 1279 9 1283 9 1279 9 9 1283 1283 1283 1283 9 1279 1279 1279 1283 1283 9 1283 9 1279 1279 1283 9 1279 1283 9 9
split_gain=165880 48297.2 23971.7 23718.4 11251.6 10689.8 8012.95 5781.31 5232.6 4791.76 4008.27 3997.13 3993.16 3523.34 3364.63 2992.78 2348.42 1835.55 1721.1 1705.21 1577.45 1432.59 1388.31 1359.96 1216.88 1205.98 1115.2 1003.84 972.66 879.386
threshold=5.9874999523162851 8.1062026023864764 3.2522685527801518 1.0000000180025095e-35 7.7138502597808847 1.0147058963775637 8.8903903961181658 7.9952681064605722 1.0000000180025095e-35 6.449409246444703 8.8465199470520037 7.4797959327697763 7.622652769088746 8.3416666984558123 7.3380954265594491 7.2204861640930185 1.3181818127632143 6.9505317211151132 6.1318895816802987 6.566392421722413 8.5701007843017596 9.0263156890869158 9.4027023315429705 5.3765182495117196 4.0625000000000009 7.9952681064605722 4.7661943435668954 8.0027027130126971 8.8090910911560076 9.0263156890869158
decision_type=2 2 2 2 2 2 2 2 2 2 2 2 2 2 2 2 2 2 2 2 2 2 2 2 2 2 2 2 2 2
left_child=2 3 13 -2 9 -4 8 11 -3 19 14 23 18 16 29 25 -1 -18 -10 24 26 -14 27 -7 -5 -11 -13 -8 -17 -6
right_child=1 6 5 4 10 7 22 -9 12 15 -12 20 21 -15 -16 28 17 -19 -20 -21 -22 -23 -24 -25 -26 -27 -28 -29 -30 -31
leaf_value=-0.072235747883428805 -0.07578439856612397 -0.075687838360043835 -0.073458098413954023 -0.037615007402317484 -0.0039828038088318219 -0.041692285982772088 0.012084940929812897 0.0064795644210789973 -0.0085704113457712554 -0.011956655412738732 0.015679639132389123 -0.029400390067541422 0.010517626468529963 0.014303066353902062 0.0047825232954166342 -0.0027289044446817397 -0.068193121390694528 -0.048456515445287583 0.0048420265513978034 0.002357049138503087 0.0032432582060906425 0.022372583363371477 0.020481853003003217 -0.026056345243264851 -0.018571647675249311 0.0065080209575758335 -0.017470423487426907 0.018072892166059708 0.018020584983053995 0.021456457521930972
leaf_weight=1140 446 74 463 383 8436 1646 6509 577 1067 6196 2094 1235 17652 64 11005 10052 683 1530 9247 350 271 1082 6396 842 2719 375 2148 4917 231 138
leaf_count=1140 446 74 463 383 8436 1646 6509 577 1067 6196 2094 1235 17652 64 11005 10052 683 1530 9247 350 271 1082 6396 842 2719 375 2148 4917 231 138
internal_value=4.4725e-05 0.00448089 -0.0373599 -0.00325206 -0.00248125 -0.0269857 0.0114695 -0.0237822 0.00823733 -0.00782983 0.00252994 -0.0266253 0.00845142 -0.0591631 0.00112344 -0.00563122 -0.060566 -0.0545511 0.00345432 -0.0185636 -0.019967 0.0112025 0.0167508 -0.0364024 -0.0209244 -0.0109027 -0.0218266 0.014662 -0.00226251 -0.00357299
internal_weight=99968 89369 10599 42425 41979 7182 46944 6719 29122 20306 21673 6142 29048 3417 19579 16854 3353 2213 10314 3452 3654 18734 17822 2488 3102 6571 3383 11426 10283 8574
internal_count=99968 89369 10599 42425 41979 7182 46944 6719 29122 20306 21673 6142 29048 3417 19579 16854 3353 2213 10314 3452 3654 18734 17822 2488 3102 6571 3383 11426 10283 8574
is_linear=0
shrinkage=0.01


Tree=2
num_leaves=31
num_cat=0
split_feature=1279 1281 1281 1279 1281 1279 1281 1281 1281 1279 1281 1281 1282 1279 1279 1281 1281 1279 1279 1281 1282 1281 1279 1279 1279 1279 1281 1282 1279 1279
split_gain=161213 55323.3 37037.4 26850.4 20123.1 16611.9 13601.6 9494.91 7822.54 5841.79 5819.27 4193.87 4048.89 4019.99 3511.42 3233.49 3046.06 2486.91 2439.85 1956.52 1845.46 1678.85 1586.19 1421.97 1234.37 1215.99 1210.14 1130.56 1036.8 944.037
threshold=6.2319328784942636 6.3311405181884775 6.9559392929077157 8.1589474678039569 2.1666666269302373 2.7698411941528325 8.5030121803283709 8.94317674636841 8.0670914649963397 7.9874999523162851 5.3541667461395273 7.7787194252014169 3.5000000000000004 4.3169858455657968 9.0290403366088885 7.9666295051574716 9.4868421554565447 7.3380954265594491 4.7661943435668954 9.3452377319335955 1.5000000000000002 5.0098040103912362 9.1945943832397479 1.3181818127632143 8.9486842155456561 7.3196594715118417 1.0000000180025095e-35 9.5000000000000018 4.4935896396636972 5.6108107566833505
decision_type=2 2 2 2 2 2 2 2 2 2 2 2 2 2 2 2 2 2 2 2 2 2 2 2 2 2 2 2 2 2
left_child=2 4 10 6 -2 12 11 15 14 21 26 17 -4 -12 -5 18 -8 -3 -7 24 -11 -6 -22 -14 -10 -13 -1 -17 -29 -28
right_child=1 3 5 8 9 7 16 -9 19 20 13 25 23 -15 -16 27 -18 -19 -20 -21 22 -23 -24 -25 -26 -27 29 28 -30 -31
leaf_value=-0.075149329960396402 -0.070565603356633227 -0.010948260567140331 0.010638312074474823 0.0062422245698518543 -0.031995879417596525 -0.037373239137854813 0.0087656062977456983 0.017476318414056061 0.013391093135421528 -0.019147850458917461 -0.061002973752120049 -0.0020009294366520425 -0.070129518135721519 -0.033934491879279029 0.015446382616941198 -0.0006066821440234789 0.022284324903602847 -0.0024088746940435423 -0.019015789431101111 0.022584468635610026 -0.0052073945617783389 -0.018340665094344285 0.013911112864294676 -0.048337279237068299 0.019256925097976153 0.0040814900473822024 -0.065426620504963673 -0.027500433702975658 -0.010428795023773016 -0.044636935344227351
leaf_weight=1069 691 5765 93 15347 1273 1107 6274 834 9665 785 917 5234 530 1368 5679 809 2270 8351 2095 5365 2570 3081 522 693 5709 8834 933 476 1410 287
leaf_count=1069 691 5765 93 15347 1273 1107 6274 834 9665 785 917 5234 530 1368 5679 809 2270 8351 2095 5365 2570 3081 522 693 5709 8834 933 476 1410 287
internal_value=3.61724e-05 0.00485984 -0.033373 0.00754196 -0.0187364 -0.0204571 0.00130504 -0.0141034 0.0130267 -0.0143843 -0.0560947 -0.00204556 -0.0529502 -0.0448001 0.00872832 -0.01857 0.0123576 -0.0058965 -0.0253636 0.0173844 -0.00545601 -0.022334 -0.00197909 -0.057787 0.0155695 0.00181846 -0.0673666 -0.0104974 -0.0147392 -0.0605408
internal_weight=100036 87415 12621 78493 8922 8047 36728 6731 41765 8231 4574 28184 1316 2285 21026 5897 8544 14116 3202 20739 3877 4354 3092 1223 15374 14068 2289 2695 1886 1220
internal_count=100036 87415 12621 78493 8922 8047 36728 6731 41765 8231 4574 28184 1316 2285 21026 5897 8544 14116 3202 20739 3877 4354 3092 1223 15374 14068 2289 2695 1886 1220
is_linear=0
shrinkage=0.01


Tree=3
num_leaves=31
num_cat=0
split_feature=1279 1281 1281 1281 1279 1279 1279 1281 1281 1279 1282 1281 1281 1281 1279 1279 1281 1279 1281 1279 1281 1279 1281 1281 1281 1282 1281 1281 1279 1282
split_gain=160597 51958.6 36105.2 24848 18860.9 17612.4 11224.9 9507.64 8621.61 6361.33 5857.17 5346.96 4570.91 3666.94 3260.51 3039.1 2552.64 2495.32 2080.67 2012.54 1961.11 1540.37 1508.31 1461.21 1403.05 994.071 922.929 888.678 798.564 783.921
threshold=6.317894935607911 7.1188235282897958 6.911992311477662 2.1666666269302373 8.1589474678039569 3.2522685527801518 7.9466571807861337 8.7165179252624529 8.8172106742858904 4.0678732395172128 3.5000000000000004 8.2524509429931658 5.3541667461395273 5.6515150070190439 9.0506410598754901 7.4248118400573739 7.9622189998626718 9.0290403366088885 6.0185184478759775 1.738636374473572 9.4868421554565447 4.8550419807434091 7.9803190231323251 9.5916666984558123 1.0000000180025095e-35 5.5000000000000009 8.0408334732055682 8.1773724555969256 8.8960866928100604 1.5000000000000002
decision_type=2 2 2 2 2 2 2 2 2 2 2 2 2 2 2 2 2 2 2 2 2 2 2 2 2 2 2 2 2 2
left_child=2 3 9 -2 7 10 13 15 16 -1 -4 17 24 -5 18 22 21 -6 -8 -12 -9 -7 -3 28 -11 -18 -17 -21 -13 -16
right_child=1 4 5 6 11 8 14 20 -10 12 19 23 -14 -15 29 26 25 -19 -20 27 -22 -23 -24 -25 -26 -27 -28 -29 -30 -31
leaf_value=-0.067546698882825218 -0.06949250988966689 -0.0072486822562848391 0.010919008498265619 -0.028990795676422394 0.0081247035050818119 -0.033622372306495278 -0.010235221662441377 0.010156120906982124 0.015546021617755122 -0.074381813412711037 -0.066168808761158313 0.014094671603056703 -0.032790992248673628 -0.012510054303194853 -0.01899285787130843 0.0018006335968796855 0.0011775770485449606 0.016151270728048235 0.00071659661667286187 -0.049747962015076905 0.021988721192846967 -0.018683448184891052 0.00023841780379995362 0.022701534195038977 -0.051048134037665067 -0.013303567142738367 0.0072515290331257622 -0.027988632532895324 0.019209428422468675 0.012756559345568191
leaf_weight=2078 668 5269 155 1674 14099 981 2611 3694 926 403 705 7464 1513 6980 81 9102 615 5341 5168 696 2257 2333 5498 4738 721 2066 4716 258 5171 1887
leaf_count=2078 668 5269 155 1674 14099 981 2611 3694 926 403 705 7464 1513 6980 81 9102 615 5341 5168 696 2257 2333 5498 4738 721 2066 4716 258 5171 1887
internal_value=-1.54042e-05 0.00498742 -0.0321591 -0.00958483 0.00911339 -0.0201211 -0.00740962 0.00330287 -0.0128509 -0.0544595 -0.0478565 0.0139331 -0.044144 -0.0156984 -5.00828e-05 0.000557504 -0.0172375 0.0103301 -0.00295931 -0.0533488 0.0146443 -0.0231068 -0.00342545 0.0179647 -0.059421 -0.00998142 0.0036611 -0.043868 0.0161882 0.0114484
internal_weight=99868 86418 13450 19069 67349 8735 18401 30536 6921 4715 1814 36813 2637 8654 9747 24585 5995 19440 7779 1659 5951 3314 10767 17373 1124 2681 13818 954 12635 1968
internal_count=99868 86418 13450 19069 67349 8735 18401 30536 6921 4715 1814 36813 2637 8654 9747 24585 5995 19440 7779 1659 5951 3314 10767 17373 1124 2681 13818 954 12635 1968
is_linear=0
shrinkage=0.01


Tree=4
num_leaves=31
num_cat=0
split_feature=1279 1281 1281 1281 1279 1279 1279 1281 1281 1281 1281 1281 1279 1279 1282 1279 1279 1279 1282 1281 1282 1281 1281 1281 1281 1281 1279 1281 1282 1282
split_gain=155153 57601.2 31447.6 26985 21017 12255.6 11578.8 11034 7685.01 6166.26 5347.28 4448.97 4196.49 4063.8 3054.25 2698.32 2656.75 2626.77 2307.02 1973.92 1704 1291.74 1205.07 1171.79 1038.19 942.687 932.051 897.517 889.686 879.955
threshold=5.9874999523162851 7.1188235282897958 7.2186956405639657 2.1666666269302373 8.1589474678039569 7.9466571807861337 2.0976190567016606 8.7258663177490252 8.94317674636841 5.9838709831237802 8.4005985260009783 5.5119047164917001 3.8480768203735356 7.043809413909913 1.5000000000000002 9.1370120048522967 9.1945943832397479 4.4935896396636972 3.5000000000000004 9.5147056579589862 5.5000000000000009 7.7787194252014169 9.6125001907348651 7.9870915412902841 1.0000000180025095e-35 7.9536671638488778 7.3015153408050546 6.1985399723052987 2.5000000000000004 2.5000000000000004
decision_type=2 2 2 2 2 2 2 2 2 2 2 2 2 2 2 2 2 2 2 2 2 2 2 2 2 2 2 2 2 2
left_child=2 3 9 -2 7 11 18 13 17 24 15 -5 28 23 -7 -6 27 20 -4 -9 -8 -15 -12 -3 -1 -19 -13 -16 -11 -14
right_child=1 4 6 5 10 14 8 19 -10 12 22 26 29 21 16 -17 -18 25 -20 -21 -22 -23 -24 -25 -26 -27 -28 -29 -30 -31
leaf_value=-0.073699216215724936 -0.0689424836924213 -0.010698650358101119 0.016239154882498989 -0.030617428400692776 0.008653580003590176 -0.017746422207572339 -0.0024148442725755925 0.010531175027194518 0.016922589135858247 -0.015058553286605535 0.0164398316383653 -0.016507596931392712 -0.015079617547153763 -0.0014038636510791107 -0.0062821318569641063 0.017081534365609174 0.01409883856036406 -0.02036551745047098 -0.059863532484964614 0.022322193609113656 -0.033960085979244936 0.0040942620412119787 0.022528281910924545 -0.0024520622737705037 -0.060434347656168869 -0.0086259783151758952 -0.0095744711967201621 0.0013294899151084531 -0.061645972989249918 -0.036263958232686265
leaf_weight=1048 764 3559 42 1784 16632 918 196 4006 665 43 10563 3951 234 6438 2221 4924 1391 1216 752 2200 1360 12706 4700 3341 1367 1565 3811 5120 940 1222
leaf_count=1048 764 3559 42 1784 16632 918 196 4006 665 43 10563 3951 234 6438 2221 4924 1391 1216 752 2200 1360 12706 4700 3341 1367 1565 3811 5120 940 1222
internal_value=-1.59121e-05 0.00429915 -0.0360876 -0.0106635 0.00862319 -0.00834363 -0.0203613 0.00272907 -0.0147291 -0.0548649 0.0137858 -0.0163773 -0.0436447 -0.000126219 -0.000396392 0.0105789 0.00142769 -0.0195828 -0.0558352 0.0147115 -0.0299876 0.00224523 0.0183149 -0.00670587 -0.0661939 -0.01376 -0.0131039 -0.000973304 -0.0596108 -0.0328613
internal_weight=99679 89029 10650 19960 69069 19196 5796 32250 5002 4854 36819 9546 2439 26044 9650 21556 8732 4337 794 6206 1556 19144 15263 6900 2415 2781 7762 7341 983 1456
internal_count=99679 89029 10650 19960 69069 19196 5796 32250 5002 4854 36819 9546 2439 26044 9650 21556 8732 4337 794 6206 1556 19144 15263 6900 2415 2781 7762 7341 983 1456
is_linear=0
shrinkage=0.01


Tree=5
num_leaves=31
num_cat=0
split_feature=1279 1281 1281 1279 1281 1281 1279 1279 1281 1281 1281 1279 1279 1281 1279 1279 1281 1282 1281 1279 1281 1281 1282 1282 1279 1282 1282 1282 1279 1279
split_gain=154422 57987.2 29671.2 26276.4 22912.3 13456.6 11065.2 7947.21 7320.37 6847.16 5738.91 4486.93 4036.35 3067.54 2983.25 2775.22 2635.8 2377.1 2268.36 2149.39 1726.68 1480.77 1341.82 1291.14 1135.88 1096.66 1095.34 817.608 744.98 738.083
threshold=5.9451951980590829 6.6132478713989267 7.2522728443145761 8.1690478324890154 2.1666666269302373 8.5138292312622088 2.0976190567016606 7.9466571807861337 8.8172106742858904 8.0855836868286151 5.3541667461395273 7.3380954265594491 3.8480768203735356 9.4868421554565447 9.0290403366088885 3.8480768203735356 5.0098040103912362 3.5000000000000004 7.9321839809417733 9.15075731277466 9.3452377319335955 7.3699247837066659 1.5000000000000002 5.5000000000000009 8.9486842155456561 2.5000000000000004 5.5000000000000009 2.5000000000000004 0.6664295792579652 6.7193748950958261
decision_type=2 2 2 2 2 2 2 2 2 2 2 2 2 2 2 2 2 2 2 2 2 2 2 2 2 2 2 2 2 2
left_child=2 4 10 5 -2 11 17 16 15 14 -1 18 27 -7 -5 26 -6 -4 29 22 24 -13 -9 -17 -11 -14 -8 -12 -19 -3
right_child=1 3 6 9 7 13 8 19 -10 20 12 21 25 -15 -16 23 -18 28 -20 -21 -22 -23 -24 -25 -26 -27 -28 -29 -30 -31
leaf_value=-0.067059485647343625 -0.068231231856948779 -0.014206967419804813 0.015032320982072411 0.0063848580944640392 -0.033221713886234065 0.0084136230351999804 -0.0054502437559510635 -0.018859848617922483 0.014977337965138735 0.013083902728531665 -0.017793578192623991 -0.0035733086738249831 -0.01412202705962178 0.021593798576633808 0.015024048550066033 -1.4531466160053309e-05 -0.017230328876488201 -0.071672721640779688 -0.0013273080684497115 0.010953651988072483 0.021877498423461289 0.0031257977502085676 -0.0041934612307348322 -0.01810218233369397 0.018767565444409103 -0.038153932399722867 -0.038584380775721301 -0.060876094828230344 -0.051205893421418715 -0.0076811012164221346
leaf_weight=2086 803 2830 45 14582 1364 6520 113 754 702 9244 46 4536 220 2422 5507 467 4223 308 4742 816 5333 12103 3613 2551 5679 1401 859 1136 427 4476
leaf_count=2086 803 2830 45 14582 1364 6520 113 754 702 9244 46 4536 220 2422 5507 467 4223 308 4742 816 5333 12103 3613 2551 5679 1401 859 1136 427 4476
internal_value=-4.52619e-05 0.00418367 -0.0365944 0.00728387 -0.016704 0.0012729 -0.0205978 -0.0128615 -0.0147989 0.0128901 -0.0544976 -0.0020658 -0.0451466 0.0119839 0.00875323 -0.0200382 -0.0211351 -0.0554729 -0.00671349 -0.00394249 0.0169928 0.00129947 -0.00672634 -0.0153038 0.015247 -0.034894 -0.0347344 -0.0592019 -0.0597924 -0.0102092
internal_weight=99908 89547 10361 77974 11573 37629 5472 10770 4692 40345 4889 28687 2803 8942 20089 3990 5587 780 12048 5183 20256 16639 4367 3018 14923 1621 972 1182 735 7306
internal_count=99908 89547 10361 77974 11573 37629 5472 10770 4692 40345 4889 28687 2803 8942 20089 3990 5587 780 12048 5183 20256 16639 4367 3018 14923 1621 972 1182 735 7306
is_linear=0
shrinkage=0.01


Tree=6
num_leaves=31
num_cat=0
split_feature=1279 1281 1281 1279 1281 1279 1281 1281 1281 1279 1281 1282 1279 1281 1279 1281 1279 1281 1279 1279 1281 1282 1279 1281 1281 1281 1279 1281 1279 1279
split_gain=151211 50980.9 35256.6 23293.6 19330.3 15142.2 11924.4 6949.11 6942.61 6082.34 6011.8 5873.5 4071.94 3661.8 3030.95 2769.47 2434.44 2281.61 2179.39 1770.26 1641.31 1609.41 1309.56 1155.54 1130.04 1078.4 1049.63 917.554 878.619 779.155
threshold=6.2649123668670663 6.4950981140136728 6.9559392929077157 8.1690478324890154 2.1666666269302373 3.6391391754150395 8.5138292312622088 8.6422252655029315 8.0855836868286151 8.361305236816408 5.2678570747375497 3.5000000000000004 4.3169858455657968 7.7327754497528085 9.0290403366088885 9.4868421554565447 1.3181818127632143 5.0098040103912362 7.4027028083801278 4.9587543010711679 9.3452377319335955 1.5000000000000002 7.0563490390777597 7.9148919582366952 8.3933982849121112 1.0000000180025095e-35 8.9486842155456561 8.9864864349365252 9.2168035507202166 4.9587543010711679
decision_type=2 2 2 2 2 2 2 2 2 2 2 2 2 2 2 2 2 2 2 2 2 2 2 2 2 2 2 2 2 2
left_child=2 4 10 6 -2 11 13 19 14 17 25 -4 -12 18 -5 -8 -13 -6 -3 23 26 -11 -15 -7 -18 -1 -10 -9 -23 -27
right_child=1 3 5 8 9 7 15 27 20 21 12 16 -14 22 -16 -17 24 -19 -20 -21 -22 28 -24 -25 -26 29 -28 -29 -30 -31
leaf_value=-0.072294941130039772 -0.067525416354117601 -0.010056074114760474 0.01144117445038116 0.0062692520897112474 -0.028204725318939347 -0.033033029086113823 0.0085456846061264888 -0.0015163246170097409 0.013101163107704752 -0.018595378001051172 -0.058106863327371132 -0.067097353744359295 -0.031896580971304933 -0.0035626571015789647 0.014863614542012387 0.021355511950400856 -0.046089353648809207 -0.014588425478195829 -0.0017855768552230938 -0.012767810523727573 0.021660057961776544 -0.00056996271989821453 0.0035372848330661208 -0.016072538868278415 -0.022706672945845222 -0.064906781287829646 0.018584367636939186 0.016439085373916185 0.01387271338876332 -0.048197126233533102
leaf_weight=1103 693 5623 178 14960 1661 898 6246 453 9231 414 1004 517 1449 3367 5655 2313 1033 4754 7353 3424 5299 1819 11370 728 259 735 5619 765 548 454
leaf_count=1103 693 5623 178 14960 1661 898 6246 453 9231 414 1004 517 1449 3367 5655 2313 1033 4754 7353 3424 5299 1819 11370 728 259 735 5619 765 548 454
internal_value=1.89283e-05 0.00477617 -0.0317903 0.00752004 -0.0165985 -0.0193042 0.00169059 -0.011678 0.0127071 -0.0127599 -0.0535117 -0.0433585 -0.0426267 -0.0014958 0.00862692 0.0120078 -0.0487515 -0.0181146 -0.00536963 -0.0168491 0.0168815 -0.000407584 0.00191506 -0.0254415 -0.0414049 -0.0651585 0.0151761 0.00976069 0.00277378 -0.0585319
internal_weight=99925 86925 13000 77036 9889 8255 36272 6268 40764 9196 4745 1987 2453 27713 20615 8559 1809 6415 12976 5050 20149 2781 14737 1626 1292 2292 14850 1218 2367 1189
internal_count=99925 86925 13000 77036 9889 8255 36272 6268 40764 9196 4745 1987 2453 27713 20615 8559 1809 6415 12976 5050 20149 2781 14737 1626 1292 2292 14850 1218 2367 1189
is_linear=0
shrinkage=0.01


Tree=7
num_leaves=31
num_cat=0
split_feature=1279 1281 1281 1279 1281 1281 1281 1279 1282 1279 1281 1279 1279 1281 1279 1281 1281 1281 1281 1282 1279 1279 1281 1279 1279 1279 1279 1279 1279 1281
split_gain=147823 53461.4 29311.5 24695 19662 13019.3 12102.6 8941.24 7194.83 6864.81 6828.78 5566.84 4034.95 3729.05 2890.71 2651.92 1753.95 1617.64 1526.59 1456.3 1417.72 1198.22 1072.23 1028.13 1014.6 951.252 927.169 896.82 790.526 723.292
threshold=6.0131578445434579 6.4950981140136728 7.9666295051574716 8.1858553886413592 2.1666666269302373 8.3144602775573748 5.9838709831237802 3.8480768203735356 5.5000000000000009 8.4031248092651385 8.0504622459411639 2.0976190567016606 7.2204861640930185 9.4868421554565447 9.1012821197509783 5.0098040103912362 7.5508620738983163 9.0161290168762225 7.83618187904358 1.5000000000000002 1.3181818127632143 4.0678732395172128 1.0000000180025095e-35 4.9587543010711679 8.9486842155456561 9.2168035507202166 6.7193748950958261 7.5540933609008798 3.6391391754150395 9.2287583351135272
decision_type=2 2 2 2 2 2 2 2 2 2 2 2 2 2 2 2 2 2 2 2 2 2 2 2 2 2 2 2 2 2
left_child=2 4 6 5 -2 12 22 20 29 15 14 -10 18 -7 -5 26 -14 24 -3 -11 -8 -13 -1 -9 -12 -21 -6 -17 -24 -4
right_child=1 3 8 10 9 13 7 23 11 19 17 21 16 -15 -16 27 -18 -19 -20 25 -22 -23 28 -25 -26 -27 -28 -29 -30 -31
leaf_value=-0.071566811879354819 -0.066959664870990809 -0.011122785743481949 0.0043610110345158196 0.0062534885686838376 -0.043671361593739876 0.0073162265439141259 -0.068446998480370252 -0.033536935797732211 -0.058920016940306068 -0.017883549033416289 0.012623324914926428 -0.026911082999287694 -0.0034869908169586836 0.021182156920561353 0.015140154708081475 -0.019069287638290047 0.0029690041736785545 0.020757035717878042 -0.0028141194503751455 -0.00041972673060627924 -0.048796855624078844 -0.009644193445318916 -0.066953293499197986 -0.021967632484673944 0.018216347752265227 0.01443520159044101 -0.025478694835158279 -0.01065956657128969 -0.051566727772994432 0.021096520338192409
leaf_weight=1050 734 5509 671 14880 348 9142 496 1281 321 379 8574 545 7010 2462 4855 2537 10528 6613 3695 1739 1428 1532 584 1924 5221 573 1446 2538 790 420
leaf_count=1050 734 5509 671 14880 348 9142 496 1281 321 379 8574 545 7010 2462 4855 2537 10528 6613 3695 1739 1428 1532 584 1924 5221 573 1446 2538 790 420
internal_value=5.01936e-05 0.00434172 -0.0344554 0.00715197 -0.0170855 0.00141282 -0.0455289 -0.0368249 -0.0104826 -0.0132554 0.0126342 -0.0201686 -0.00242547 0.0102584 0.00843981 -0.0185593 0.000388458 0.0166901 -0.0077874 0.000282863 -0.0538664 -0.0141765 -0.0639432 -0.026593 0.0147403 0.00326191 -0.0290105 -0.0148641 -0.0581117 0.0108059
internal_weight=99825 88783 11042 78489 10294 38346 7553 5129 3489 9560 40143 2398 26742 11604 19735 6869 17538 20408 9204 2691 1924 2077 2424 3205 13795 2312 1794 5075 1374 1091
internal_count=99825 88783 11042 78489 10294 38346 7553 5129 3489 9560 40143 2398 26742 11604 19735 6869 17538 20408 9204 2691 1924 2077 2424 3205 13795 2312 1794 5075 1374 1091
is_linear=0
shrinkage=0.01


Tree=8
num_leaves=31
num_cat=0
split_feature=1279 1281 1281 1279 1281 1279 1281 1281 1279 1281 1281 1282 1279 1281 1279 1281 1281 1281 1282 1281 1279 1279 1279 1279 1279 1279 1282 1281 1279 1279
split_gain=143104 52602.7 30094.1 23463.8 21042.1 13039.1 10773.2 8307.74 7638.62 7193.7 3991.21 3763.85 3481.98 3033.44 2696.47 2570.72 2499.86 2485.6 2169.39 2048.02 1860.17 1799.42 1777.36 1335.82 1248.44 1223.68 1136.64 766.832 755.609 744.806
threshold=6.0131578445434579 6.6559443473815927 6.9559392929077157 7.9874999523162851 2.1666666269302373 2.7698411941528325 8.5030121803283709 8.0855836868286151 7.9733285903930673 8.94317674636841 5.2678570747375497 3.5000000000000004 9.0290403366088885 7.7679488658905038 3.8480768203735356 7.9557888507843026 9.4868421554565447 5.0098040103912362 1.5000000000000002 9.3452377319335955 8.9718255996704119 4.7661943435668954 7.2649123668670663 8.9486842155456561 1.3181818127632143 6.8535714149475107 5.5000000000000009 8.9864864349365252 8.4604988098144549 4.0678732395172128
decision_type=2 2 2 2 2 2 2 2 2 2 2 2 2 2 2 2 2 2 2 2 2 2 2 2 2 2 2 2 2 2
left_child=2 4 10 6 -2 11 13 12 17 15 -1 -4 28 22 -12 21 -8 -6 -10 23 -20 -7 -3 -9 -13 -15 -17 -26 -5 -28
right_child=1 3 5 7 8 9 16 19 18 -11 14 24 -14 25 -16 26 -18 -19 20 -21 -22 -23 -24 -25 27 -27 29 -29 -30 -31
leaf_value=-0.065003206347020295 -0.066246245715870858 -0.01102981159549123 0.0099283524876826908 0.003535453902744407 -0.031822927047491477 -0.035493595569076553 0.0075925131537176319 0.012336943551786429 -0.018428106398612969 0.016307694623747232 -0.059406126956858964 -0.066246942575423726 0.014563750336396664 -0.0053508118545346475 -0.035958989153913178 0.0024390079513987354 0.020908460251761185 -0.016301846414443627 -0.004334788832501513 0.021183345355506186 0.010509827174701296 -0.018483296198625293 -0.0029923626352986528 0.018315915497163777 -0.047814651425163092 0.0022970293851031849 -0.026898872067982155 0.0055705460980269407 0.0076188889996863249 -0.011417302421512312
leaf_weight=2086 765 5020 98 9426 1361 1071 5331 11312 797 668 818 517 5528 2686 1228 489 1917 4270 3268 5840 1138 1485 6089 5583 657 9461 394 28 8730 1474
leaf_count=2086 765 5020 98 9426 1361 1071 5331 11312 797 668 818 517 5528 2686 1228 489 1917 4270 3268 5840 1138 1485 6089 5583 657 9461 394 28 8730 1474
internal_value=6.00715e-05 0.00428936 -0.0339344 0.00728275 -0.0155622 -0.0211239 0.000469678 0.0117599 -0.0119826 -0.0144794 -0.0552665 -0.0496453 0.00761486 -0.00284798 -0.0453362 -0.0186658 0.0111148 -0.0200539 -0.00324697 0.0160778 -0.000500281 -0.0256124 -0.00662453 0.0143129 -0.0545036 0.000605791 -0.0111315 -0.0456305 0.00549899 -0.0146845
internal_weight=99535 88522 11013 76923 11599 6881 30504 46419 10834 5581 4132 1300 23684 23256 2046 4913 7248 5631 5203 22735 4406 2556 11109 16895 1202 12147 2357 685 18156 1868
internal_count=99535 88522 11013 76923 11599 6881 30504 46419 10834 5581 4132 1300 23684 23256 2046 4913 7248 5631 5203 22735 4406 2556 11109 16895 1202 12147 2357 685 18156 1868
is_linear=0
shrinkage=0.01


Tree=9
num_leaves=31
num_cat=0
split_feature=1279 1281 1281 1281 1279 1279 1282 1281 1281 1281 1279 1279 1281 1279 1279 1281 1282 1279 1281 1279 1281 1279 1281 1281 1279 1279 1281 1279 1279 1281
split_gain=144456 52706 27728.7 24922.3 19253.6 10829.4 8971.57 8798.95 8508.21 6526.85 6512.31 6486.77 4046.68 2832.14 2645.3 2197.82 2131.77 1694.82 1669.29 1490.56 1470.14 1405.49 1299.26 1272.04 1161.23 1013.33 956.911 916.857 845.371 840.246
threshold=5.9874999523162851 7.0900554656982431 7.7415559291839608 3.0714285373687749 7.8987178802490243 8.3246622085571307 5.5000000000000009 5.8445644378662118 8.9864864349365252 8.0964221954345721 2.0976190567016606 3.8480768203735356 5.6515150070190439 8.811655521392824 6.9874999523162851 9.5147056579589862 1.5000000000000002 7.3380954265594491 1.0000000180025095e-35 9.1945943832397479 8.6510868072509783 8.7717123031616229 7.9321839809417733 7.8908729553222665 4.3169858455657968 7.0128204822540292 9.5916666984558123 1.738636374473572 4.9587543010711679 1.0000000180025095e-35
decision_type=2 2 2 2 2 2 2 2 2 2 2 2 2 2 2 2 2 2 2 2 2 2 2 2 2 2 2 2 2 2
left_child=2 3 7 18 8 12 -4 29 14 13 -8 27 25 -6 23 21 -7 -14 -2 -18 24 -11 -16 -3 -12 -5 -10 -9 -13 -1
right_child=1 4 6 5 9 16 10 11 26 15 20 28 17 -15 22 -17 19 -19 -20 -21 -22 -23 -24 -25 -26 -27 -28 -29 -30 -31
leaf_value=-0.070206485108634795 -0.070351393988937444 -0.011314518457869866 0.010357932988063178 -0.035184042563543988 0.0054268512757512646 -0.016419401930292274 -0.057602399741190656 -0.065467276701759919 0.010870604811343203 0.011738746934345668 -0.031723798398028656 -0.035547739610550362 -0.015570155177951284 0.013235499634565549 -0.0021234905328719272 0.021340101156342835 0.001845633592816239 -0.0071849187275565265 -0.043518354143599176 0.013892626621653872 -0.00097221423687857871 0.01741385189091214 0.0037540596045011793 -0.0024999608228302981 -0.01596639388086088 -0.020799907857375063 0.021315379945648156 -0.049349222778823337 -0.02352618532620011 -0.058186262850812354
leaf_weight=1034 589 2913 1043 709 13788 522 475 533 1935 10604 673 1027 4011 7005 6664 5417 4345 6043 384 1345 452 7420 8633 3739 1536 1589 1606 1058 1364 1348
leaf_count=1034 589 2913 1043 709 13788 522 475 533 1935 10604 673 1027 4011 7005 6664 5417 4345 6043 384 1345 452 7420 8633 3739 1536 1589 1606 1058 1364 1348
internal_value=-5.50681e-05 0.00407965 -0.0350609 -0.0104368 0.00814724 -0.00785079 -0.0150471 -0.0482027 0.00122477 0.0121363 -0.0234969 -0.0391058 -0.0132672 0.00805762 -0.00109576 0.0157542 0.00291912 -0.0105304 -0.0597682 0.00469367 -0.0174066 0.0140752 0.0011935 -0.00636024 -0.0207688 -0.0252396 0.0156085 -0.0547533 -0.0286915 -0.0634073
internal_weight=99804 89261 10543 19537 69724 18564 4179 6364 25490 44234 3136 3982 12352 20793 21949 23441 6212 10054 973 5690 2661 18024 15297 6652 2209 2298 3541 1591 2391 2382
internal_count=99804 89261 10543 19537 69724 18564 4179 6364 25490 44234 3136 3982 12352 20793 21949 23441 6212 10054 973 5690 2661 18024 15297 6652 2209 2298 3541 1591 2391 2382
is_linear=0
shrinkage=0.01


Tree=10
num_leaves=31
num_cat=0
split_feature=1279 1281 1281 1281 1281 1279 1279 1281 1279 1282 1281 1279 1279 1281 1279 1279 1279 1281 1281 1281 1279 1281 1282 1279 1281 1279 1282 1281 1279 1281
split_gain=138922 44707.3 35276.7 20736.1 16671.4 15242.1 12642.3 7516.91 6901.26 5659.39 5497.73 4410.06 4398.44 3360.92 2808.88 2485.9 2439.39 2227.94 1845.58 1612.94 1599.48 1396.26 1288.47 1115.15 1009.6 925.538 882.788 844.589 842.328 808.233
threshold=6.4472222328186044 6.3311405181884775 6.9559392929077157 8.0964221954345721 2.1666666269302373 3.6391391754150395 8.2714986801147479 8.8172106742858904 5.153947353363038 3.5000000000000004 9.2928571701049822 8.2952070236206072 8.3514709472656268 2.1666666269302373 7.4843597412109384 9.1266026496887225 1.738636374473572 7.9622189998626718 5.8445644378662118 5.0098040103912362 4.8550419807434091 7.6376261711120614 1.5000000000000002 3.8480768203735356 7.3350877761840829 7.3693957328796396 6.5000000000000009 8.94317674636841 9.1945943832397479 5.0098040103912362
decision_type=2 2 2 2 2 2 2 2 2 2 2 2 2 2 2 2 2 2 2 2 2 2 2 2 2 2 2 2 2 2
left_child=2 4 8 6 -2 9 14 17 18 -4 11 25 19 -10 21 -8 -11 20 -1 -6 -7 -3 -14 -20 -16 -5 -19 -18 -24 -15
right_child=1 3 5 10 12 7 15 -9 13 16 -12 -13 22 29 24 -17 27 26 23 -21 -22 -23 28 -25 -26 -27 -28 -29 -30 -31
leaf_value=-0.065305623494709114 -0.064947885519580778 -0.0096654201554753818 0.010376528017045581 0.0026822911393032558 -0.026436808083946311 -0.03204325908938177 0.0066949263793972614 0.014358820890723578 -0.065823017708629084 -0.062176428589930686 0.020189056971316909 0.015002314215579815 -0.017538588964752112 -0.042247637708993625 -0.0028217821128423792 0.014999603917349646 -0.039815983383406868 0.001148274449072853 -0.057505304454192968 -0.01433131859473482 -0.016217093457719316 -0.0021771460753607077 -0.0020176549618770735 -0.037605419728894918 0.0027980255329722748 0.0085189643070564831 -0.011382297392088001 0.0063812797289985223 0.012946381211413787 -0.02634772154136264
leaf_weight=1884 661 5321 189 4048 1529 839 14210 1040 311 675 8462 12682 427 421 4978 4830 1090 747 682 3934 2678 4681 1586 482 8933 8266 2271 41 493 1338
leaf_count=1884 661 5321 189 4048 1529 839 14210 1040 311 675 8462 12682 427 421 4978 4830 1090 747 682 3934 2678 4681 1586 482 8933 8266 2271 41 493 1338
internal_value=-2.22182e-05 0.00488282 -0.0284214 0.00731953 -0.0166919 -0.0170877 0.00272181 -0.0106106 -0.0496132 -0.0416787 0.013222 0.0108633 -0.0126883 -0.035518 -0.00211914 0.00880175 -0.0471272 -0.0145846 -0.0591838 -0.01772 -0.0199936 -0.00616102 -0.00171864 -0.0492698 0.00078692 0.00660038 -0.00828053 -0.03814 0.00153079 -0.030156
internal_weight=99729 85041 14688 76411 8630 9570 42953 7575 5118 1995 33458 24996 7969 2070 23913 19040 1806 6535 3048 5463 3517 10002 2506 1164 13911 12314 3018 1131 2079 1759
internal_count=99729 85041 14688 76411 8630 9570 42953 7575 5118 1995 33458 24996 7969 2070 23913 19040 1806 6535 3048 5463 3517 10002 2506 1164 13911 12314 3018 1131 2079 1759
is_linear=0
shrinkage=0.01


Tree=11
num_leaves=31
num_cat=1
split_feature=1279 1281 1281 1279 1281 1279 1281 1281 1281 1281 1279 1282 1279 1281 1279 1279 1281 1281 1279 1281 1282 1281 1279 1281 1281 1281 1279 1279 1279 8
split_gain=134760 44788.7 32965.5 19953.5 17518.7 15481.9 10247.6 6951.32 6309.5 6079.51 5812.41 5641.03 3810.64 3001.59 2759.34 2723.14 2264.45 2201.64 2195.34 1481.31 1437.01 1386.07 1173.62 1153.07 1113.74 1034.24 1018.58 878.209 822.958 817.059
threshold=6.3631606101989755 6.5751881599426278 6.9559392929077157 8.1589474678039569 2.1666666269302373 3.6391391754150395 8.3585710525512713 8.8544969558715838 8.0855836868286151 5.2678570747375497 8.45080614089966 3.5000000000000004 4.3169858455657968 9.4083333015441912 9.0290403366088885 7.38348412513733 5.0098040103912362 7.9557888507843026 1.738636374473572 9.6125001907348651 1.5000000000000002 7.4344964027404794 4.9587543010711679 1.0000000180025095e-35 8.3933982849121112 7.5741758346557626 8.9270553588867205 7.5067567825317392 9.1945943832397479 0
decision_type=2 2 2 2 2 2 2 2 2 2 2 2 2 2 2 2 2 2 2 2 2 2 2 2 2 2 2 2 2 9
left_child=2 4 9 6 -2 11 15 17 14 23 16 -4 -11 -8 -5 21 -6 22 -13 26 -12 -3 -7 -1 -20 -17 -10 -18 -22 -19
right_child=1 3 5 8 10 7 13 -9 19 12 20 18 -14 -15 -16 25 27 29 24 -21 28 -23 -24 -25 -26 -27 -28 -29 -30 -31
leaf_value=-0.068854681472393459 -0.064435508827341406 -0.010926218653990362 0.010428641531804598 0.0059167927115201012 -0.026269243177670456 -0.029482951050588634 0.0072380879976321148 0.014953847859551591 0.012580355121680837 -0.055049170488602306 -0.017602114680041289 -0.061298016319925298 -0.029810669793502356 0.020145798275946834 0.014166756473356476 -0.0022856922135234777 -0.017598301454965441 -0.03299849847333132 -0.043659626193913378 0.021026027375790065 0.00010445266444878084 -0.0030688166301523889 -0.016100745883974702 -0.054785781173271444 -0.019385730713067661 0.0031749534195671604 0.017833953706404958 -0.009479819875440219 0.013146125857687947 -0.0066527904776499981
leaf_weight=1110 662 3409 188 14851 1677 936 7900 938 9717 951 365 683 1615 2334 5577 5711 2341 115 926 4611 1769 6577 2190 1237 238 8832 5955 3096 666 2672
leaf_count=1110 662 3409 188 14851 1677 936 7900 938 9717 951 365 683 1615 2334 5577 5711 2341 115 926 4611 1769 6577 2190 1237 238 8832 5955 3096 666 2672
internal_value=-1.2017e-05 0.00464017 -0.0290228 0.00734085 -0.0146326 -0.0175295 0.00177654 -0.0103351 0.0120922 -0.0498094 -0.0113063 -0.0417478 -0.0391666 0.0101821 0.0081692 -0.00173043 -0.01611 -0.0143471 -0.0470595 0.016043 0.000898143 -0.00575134 -0.0201088 -0.0614427 -0.0386994 0.0010305 0.0145768 -0.0129758 0.0036723 -0.00788366
internal_weight=99849 86050 13799 75474 10576 8886 34763 6851 40711 4913 9914 2035 2566 10234 20428 24529 7114 5913 1847 20283 2800 9986 3126 2347 1164 14543 15672 5437 2435 2787
internal_count=99849 86050 13799 75474 10576 8886 34763 6851 40711 4913 9914 2035 2566 10234 20428 24529 7114 5913 1847 20283 2800 9986 3126 2347 1164 14543 15672 5437 2435 2787
cat_boundaries=0 56
cat_threshold=0 0 0 0 0 0 0 0 0 0 4194304 0 0 0 0 0 0 0 0 0 0 0 0 0 4194304 0 0 0 0 0 0 0 0 0 0 0 0 0 0 0 0 0 0 0 0 0 0 0 0 0 0 0 0 0 0 16777216
is_linear=0
shrinkage=0.01


Tree=12
num_leaves=31
num_cat=0
split_feature=1279 1281 1281 1279 1281 1279 1281 1281 1281 1281 1282 1279 1279 1281 1281 1279 1281 1279 1279 1279 1281 1279 1281 1281 1282 1279 1281 1279 1282 1279
split_gain=134447 43912.8 32597.6 20904.8 15935.1 14942.7 11162.3 7332.32 5920.3 5819.19 4929.7 4493.08 3589.3 3414.71 2509.05 2389.97 2382.16 2093.65 1922.3 1909.33 1692.08 1478.11 1357.47 1243.38 1187.56 948.25 944.04 901.028 812.767 792.287
threshold=6.3631606101989755 6.3311405181884775 6.911992311477662 8.2412118911743182 2.1666666269302373 3.2522685527801518 8.5278635025024432 8.8360214233398455 8.0255546569824237 5.3541667461395273 3.5000000000000004 8.4104852676391619 4.3169858455657968 7.429563283920289 7.9622189998626718 9.0506410598754901 9.4868421554565447 1.3181818127632143 4.9587543010711679 7.4248118400573739 5.2678570747375497 7.3015153408050546 9.2287583351135272 1.0000000180025095e-35 1.5000000000000002 8.9486842155456561 8.3933982849121112 5.6108107566833505 5.5000000000000009 9.1945943832397479
decision_type=2 2 2 2 2 2 2 2 2 2 2 2 2 2 2 2 2 2 2 2 2 2 2 2 2 2 2 2 2 2
left_child=2 4 9 6 -2 10 13 14 15 23 -4 20 -11 21 18 -5 -8 -12 -7 -15 -6 -3 25 -1 -13 -10 -19 -25 -16 -26
right_child=1 3 5 8 11 7 16 -9 22 12 17 24 -14 19 28 -17 -18 26 -20 -21 -22 -23 -24 27 29 -27 -28 -29 -30 -31
leaf_value=-0.068167788686601796 -0.06345687595521704 -0.011486252340727024 0.0089969617857635562 0.0059985123518717463 -0.025430084649781831 -0.031844573149308816 0.0084782262901318978 0.014607750320782487 0.012279000553368388 -0.054528019643269705 -0.064289963394539143 -0.017305407059607047 -0.029261112359744705 -0.0025546886404670135 0.0016405364437312407 0.013888212117394121 0.020093849825281659 -0.044773981906674427 -0.015697720549490864 0.0037624682819734009 -0.0137506021616348 -0.0032011514664897103 0.020137097487663302 -0.059029903109700861 -0.001560492015376705 0.017568022274545524 -0.020944473066790207 -0.04070005657698534 -0.011066849869285052 0.013033748756447913
leaf_weight=1134 670 3279 165 13564 1813 1088 6432 961 8546 893 549 371 1520 7991 652 5356 2434 909 2290 11923 3932 6274 5759 962 1435 5623 204 374 2205 502
leaf_count=1134 670 3279 165 13564 1813 1088 6432 961 8546 893 549 371 1520 7991 652 5356 2434 909 2290 11923 3932 6274 5759 962 1435 5623 204 374 2205 502
internal_value=-4.30864e-06 0.00466533 -0.0288508 0.00706897 -0.0166018 -0.0175872 0.00182972 -0.0111024 0.0122387 -0.0496632 -0.0431263 -0.0127026 -0.0386141 -0.00113022 -0.0150654 0.0082321 0.0116674 -0.0483018 -0.0208994 0.0012275 -0.017437 -0.00604515 0.0160426 -0.0604549 -0.000917314 0.0143781 -0.0404095 -0.0539028 -0.00816657 0.00222177
internal_weight=99810 85904 13906 77181 8723 9023 38333 7196 38848 4883 1827 8053 2413 29467 6235 18920 8866 1662 3378 19914 5745 9553 19928 2470 2308 14169 1113 1336 2857 1937
internal_count=99810 85904 13906 77181 8723 9023 38333 7196 38848 4883 1827 8053 2413 29467 6235 18920 8866 1662 3378 19914 5745 9553 19928 2470 2308 14169 1113 1336 2857 1937
is_linear=0
shrinkage=0.01


Tree=13
num_leaves=31
num_cat=0
split_feature=1279 1281 1281 1281 1279 1279 1279 1281 1279 1281 1282 1281 1281 1281 1279 1279 1281 1282 1281 1279 1281 1279 1279 1281 1281 1279 1279 1281 1281 1282
